{"learner":{"attributes":{"scikit_learn":"{\"_estimator_type\": \"regressor\"}"},"feature_names":["IDADE","PESCOCO","ASA","CIRCFABDOM","SOBRECOXA","COXA","CANELA"],"feature_types":["int","float","float","float","float","float","float"],"gradient_booster":{"model":{"cats":{"enc":[],"feature_segments":[],"sorted_idx":[]},"gbtree_model_param":{"num_parallel_tree":"1","num_trees":"205"},"iteration_indptr":[0,1,2,3,4,5,6,7,8,9,10,11,12,13,14,15,16,17,18,19,20,21,22,23,24,25,26,27,28,29,30,31,32,33,34,35,36,37,38,39,40,41,42,43,44,45,46,47,48,49,50,51,52,53,54,55,56,57,58,59,60,61,62,63,64,65,66,67,68,69,70,71,72,73,74,75,76,77,78,79,80,81,82,83,84,85,86,87,88,89,90,91,92,93,94,95,96,97,98,99,100,101,102,103,104,105,106,107,108,109,110,111,112,113,114,115,116,117,118,119,120,121,122,123,124,125,126,127,128,129,130,131,132,133,134,135,136,137,138,139,140,141,142,143,144,145,146,147,148,149,150,151,152,153,154,155,156,157,158,159,160,161,162,163,164,165,166,167,168,169,170,171,172,173,174,175,176,177,178,179,180,181,182,183,184,185,186,187,188,189,190,191,192,193,194,195,196,197,198,199,200,201,202,203,204,205],"tree_info":[0,0,0,0,0,0,0,0,0,0,0,0,0,0,0,0,0,0,0,0,0,0,0,0,0,0,0,0,0,0,0,0,0,0,0,0,0,0,0,0,0,0,0,0,0,0,0,0,0,0,0,0,0,0,0,0,0,0,0,0,0,0,0,0,0,0,0,0,0,0,0,0,0,0,0,0,0,0,0,0,0,0,0,0,0,0,0,0,0,0,0,0,0,0,0,0,0,0,0,0,0,0,0,0,0,0,0,0,0,0,0,0,0,0,0,0,0,0,0,0,0,0,0,0,0,0,0,0,0,0,0,0,0,0,0,0,0,0,0,0,0,0,0,0,0,0,0,0,0,0,0,0,0,0,0,0,0,0,0,0,0,0,0,0,0,0,0,0,0,0,0,0,0,0,0,0,0,0,0,0,0,0,0,0,0,0,0,0,0,0,0,0,0,0,0,0,0,0,0,0,0,0,0,0,0],"trees":[{"base_weights":[3.1286018E0,-3.3373245E2,5.198977E2,-4.5683536E2,-1.01933174E2,3.245027E2,6.8660095E2,-1.4289271E1,-1.0068093E1,-4.771228E0,3.8076922E-1,5.4820523E0,1.1988801E1,1.6539362E1,2.230859E1],"categories":[],"categories_nodes":[],"categories_segments":[],"categories_sizes":[],"default_left":[0,0,0,0,0,0,0,0,0,0,0,0,0,0,0],"id":0,"left_children":[1,3,5,7,9,11,13,-1,-1,-1,-1,-1,-1,-1,-1],"loss_changes":[2.7339283E8,2.7094712E7,2.0018976E7,3.701392E6,2.9304002E6,4.161878E6,2.983952E6,0E0,0E0,0E0,0E0,0E0,0E0,0E0,0E0],"parents":[2147483647,0,0,1,1,2,2,3,3,4,4,5,5,6,6],"right_children":[2,4,6,8,10,12,14,-1,-1,-1,-1,-1,-1,-1,-1],"split_conditions":[2.46E1,2.8E1,8E1,1.4E1,2.07E1,2.9E1,1.15E2,-1.4289271E1,-1.0068093E1,-4.771228E0,3.8076922E-1,5.4820523E0,1.1988801E1,1.6539362E1,2.230859E1],"split_indices":[3,0,0,0,3,3,0,0,0,0,0,0,0,0,0],"split_type":[0,0,0,0,0,0,0,0,0,0,0,0,0,0,0],"sum_hessian":[1.569E3,9.5E2,6.19E2,6.2E2,3.3E2,2.86E2,3.33E2,3.16E2,3.04E2,1.99E2,1.31E2,1.46E2,1.4E2,2.29E2,1.04E2],"tree_param":{"num_deleted":"0","num_feature":"7","num_nodes":"15","size_leaf_vector":"1"}},{"base_weights":[9.638257E0,-3.3307553E2,4.9201813E2,-4.4478265E2,-1.0614564E2,2.8476355E2,6.746786E2,-1.3890725E1,-9.823076E0,-5.0874543E0,-6.278354E-1,3.0166883E0,9.2016325E0,1.6254251E1,2.182397E1],"categories":[],"categories_nodes":[],"categories_segments":[],"categories_sizes":[],"default_left":[0,0,0,0,0,0,0,0,0,0,0,0,0,0,0],"id":1,"left_children":[1,3,5,7,9,11,13,-1,-1,-1,-1,-1,-1,-1,-1],"loss_changes":[2.578142E8,2.3076984E7,2.4377056E7,3.376296E6,2.0884572E6,3.056614E6,2.891984E6,0E0,0E0,0E0,0E0,0E0,0E0,0E0,0E0],"parents":[2147483647,0,0,1,1,2,2,3,3,4,4,5,5,6,6],"right_children":[2,4,6,8,10,12,14,-1,-1,-1,-1,-1,-1,-1,-1],"split_conditions":[5.2E1,2.8E1,8E1,1.4E1,3.8E1,9E0,1.15E2,-1.3890725E1,-9.823076E0,-5.0874543E0,-6.278354E-1,3.0166883E0,9.2016325E0,1.6254251E1,2.182397E1],"split_indices":[0,0,0,0,0,4,0,0,0,0,0,0,0,0,0],"split_type":[0,0,0,0,0,0,0,0,0,0,0,0,0,0,0],"sum_hessian":[1.558E3,9.11E2,6.47E2,6.1E2,3.01E2,3.04E2,3.43E2,3.11E2,2.99E2,1.49E2,1.52E2,7.8E1,2.26E2,2.34E2,1.09E2],"tree_param":{"num_deleted":"0","num_feature":"7","num_nodes":"15","size_leaf_vector":"1"}},{"base_weights":[-1.7818327E0,-3.2197632E2,4.845853E2,-4.3129852E2,-1.0068728E2,3.027592E2,6.504827E2,-1.35280695E1,-9.582733E0,-4.4357815E0,7.7234006E-1,5.0565586E0,1.1097457E1,1.5726517E1,2.1036703E1],"categories":[],"categories_nodes":[],"categories_segments":[],"categories_sizes":[],"default_left":[0,0,0,0,0,0,0,0,0,0,0,0,0,0,0],"id":2,"left_children":[1,3,5,7,9,11,13,-1,-1,-1,-1,-1,-1,-1,-1],"loss_changes":[2.4037408E8,2.2483776E7,1.8334656E7,3.242424E6,2.6009998E6,3.677178E6,2.38264E6,0E0,0E0,0E0,0E0,0E0,0E0,0E0,0E0],"parents":[2147483647,0,0,1,1,2,2,3,3,4,4,5,5,6,6],"right_children":[2,4,6,8,10,12,14,-1,-1,-1,-1,-1,-1,-1,-1],"split_conditions":[2.42E1,2.8E1,8E1,1.4E1,2.11E1,2.85E1,1.15E2,-1.35280695E1,-9.582733E0,-4.4357815E0,7.7234006E-1,5.0565586E0,1.1097457E1,1.5726517E1,2.1036703E1],"split_indices":[3,0,0,0,3,3,0,0,0,0,0,0,0,0,0],"split_type":[0,0,0,0,0,0,0,0,0,0,0,0,0,0,0],"sum_hessian":[1.542E3,9.3E2,6.12E2,6.22E2,3.08E2,2.93E2,3.19E2,3.08E2,3.14E2,2.05E2,1.03E2,1.46E2,1.47E2,2.2E2,9.9E1],"tree_param":{"num_deleted":"0","num_feature":"7","num_nodes":"15","size_leaf_vector":"1"}},{"base_weights":[-6.168317E0,-3.1108932E2,4.8118362E2,-4.204831E2,-9.48486E1,2.9741672E2,6.3385004E2,-1.3191565E1,-9.198246E0,-4.3768663E0,7.048007E-1,5.150696E0,1.0541653E1,1.5048394E1,2.0698923E1],"categories":[],"categories_nodes":[],"categories_segments":[],"categories_sizes":[],"default_left":[0,0,0,0,0,0,0,0,0,0,0,0,0,0,0],"id":3,"left_children":[1,3,5,7,9,11,13,-1,-1,-1,-1,-1,-1,-1,-1],"loss_changes":[2.3427608E8,2.2909744E7,1.6880128E7,3.44672E6,2.7187005E6,2.74101E6,2.980672E6,0E0,0E0,0E0,0E0,0E0,0E0,0E0,0E0],"parents":[2147483647,0,0,1,1,2,2,3,3,4,4,5,5,6,6],"right_children":[2,4,6,8,10,12,14,-1,-1,-1,-1,-1,-1,-1,-1],"split_conditions":[2.46E1,2.8E1,8E1,1.4E1,2.11E1,2.85E1,1.15E2,-1.3191565E1,-9.198246E0,-4.3768663E0,7.048007E-1,5.150696E0,1.0541653E1,1.5048394E1,2.0698923E1],"split_indices":[3,0,0,0,3,3,0,0,0,0,0,0,0,0,0],"split_type":[0,0,0,0,0,0,0,0,0,0,0,0,0,0,0],"sum_hessian":[1.575E3,9.69E2,6.06E2,6.43E2,3.26E2,2.76E2,3.3E2,3.3E2,3.13E2,2.08E2,1.18E2,1.33E2,1.43E2,2.2E2,1.1E2],"tree_param":{"num_deleted":"0","num_feature":"7","num_nodes":"15","size_leaf_vector":"1"}},{"base_weights":[-6.2415986E0,-3.1291095E2,4.5804343E2,-4.145317E2,-1.0318622E2,2.8255637E2,6.132003E2,-1.28248005E1,-9.116533E0,-4.171423E0,3.721327E-1,4.812369E0,1.0339265E1,1.36646E1,1.869052E1],"categories":[],"categories_nodes":[],"categories_segments":[],"categories_sizes":[],"default_left":[0,0,0,0,0,0,0,0,0,0,0,0,0,0,0],"id":4,"left_children":[1,3,5,7,9,11,13,-1,-1,-1,-1,-1,-1,-1,-1],"loss_changes":[2.2147715E8,1.9932112E7,1.6716576E7,2.885296E6,1.8899828E6,3.054104E6,2.589752E6,0E0,0E0,0E0,0E0,0E0,0E0,0E0,0E0],"parents":[2147483647,0,0,1,1,2,2,3,3,4,4,5,5,6,6],"right_children":[2,4,6,8,10,12,14,-1,-1,-1,-1,-1,-1,-1,-1],"split_conditions":[2.42E1,2.8E1,3.16E1,1.4E1,2.11E1,2.85E1,1.01E2,-1.28248005E1,-9.116533E0,-4.171423E0,3.721327E-1,4.812369E0,1.0339265E1,1.36646E1,1.869052E1],"split_indices":[3,0,3,0,3,3,0,0,0,0,0,0,0,0,0],"split_type":[0,0,0,0,0,0,0,0,0,0,0,0,0,0,0],"sum_hessian":[1.554E3,9.36E2,6.18E2,6.3E2,3.06E2,2.91E2,3.27E2,3.35E2,2.95E2,2.11E2,9.5E1,1.47E2,1.44E2,1.5E2,1.77E2],"tree_param":{"num_deleted":"0","num_feature":"7","num_nodes":"15","size_leaf_vector":"1"}},{"base_weights":[-6.660484E0,-2.9193036E2,4.533336E2,-3.986755E2,-8.908742E1,2.711657E2,5.982415E2,-1.248998E1,-8.738772E0,-4.267585E0,4.379232E-1,3.8714483E0,9.029341E0,1.3540805E1,1.82087E1],"categories":[],"categories_nodes":[],"categories_segments":[],"categories_sizes":[],"default_left":[0,0,0,0,0,0,0,0,0,0,0,0,0,0,0],"id":5,"left_children":[1,3,5,7,9,11,13,-1,-1,-1,-1,-1,-1,-1,-1],"loss_changes":[2.0766154E8,2.1122288E7,1.5867904E7,3.019592E6,2.5043755E6,2.216998E6,2.288072E6,0E0,0E0,0E0,0E0,0E0,0E0,0E0,0E0],"parents":[2147483647,0,0,1,1,2,2,3,3,4,4,5,5,6,6],"right_children":[2,4,6,8,10,12,14,-1,-1,-1,-1,-1,-1,-1,-1],"split_conditions":[2.46E1,2.8E1,3.16E1,1.4E1,2.07E1,2.75E1,1.01E2,-1.248998E1,-8.738772E0,-4.267585E0,4.379232E-1,3.8714483E0,9.029341E0,1.3540805E1,1.82087E1],"split_indices":[3,0,3,0,3,3,0,0,0,0,0,0,0,0,0],"split_type":[0,0,0,0,0,0,0,0,0,0,0,0,0,0,0],"sum_hessian":[1.581E3,9.76E2,6.05E2,6.39E2,3.37E2,2.69E2,3.36E2,3.28E2,3.11E2,2.02E2,1.35E2,9.3E1,1.76E2,1.6E2,1.76E2],"tree_param":{"num_deleted":"0","num_feature":"7","num_nodes":"15","size_leaf_vector":"1"}},{"base_weights":[-2.4095327E-1,-2.9332654E2,4.3665216E2,-3.8887933E2,-9.2606476E1,2.6632855E2,5.909972E2,-1.2178246E1,-8.642505E0,-4.2633057E0,2.490224E-1,4.558242E0,9.995471E0,1.2954551E1,1.7947754E1],"categories":[],"categories_nodes":[],"categories_segments":[],"categories_sizes":[],"default_left":[0,0,0,0,0,0,0,0,0,0,0,0,0,0,0],"id":6,"left_children":[1,3,5,7,9,11,13,-1,-1,-1,-1,-1,-1,-1,-1],"loss_changes":[2.0084299E8,1.7977464E7,1.6436464E7,2.659584E6,2.0623082E6,3.042566E6,2.556E6,0E0,0E0,0E0,0E0,0E0,0E0,0E0,0E0],"parents":[2147483647,0,0,1,1,2,2,3,3,4,4,5,5,6,6],"right_children":[2,4,6,8,10,12,14,-1,-1,-1,-1,-1,-1,-1,-1],"split_conditions":[2.42E1,2.8E1,8E1,1.4E1,2.05E1,2.9E1,1.01E2,-1.2178246E1,-8.642505E0,-4.2633057E0,2.490224E-1,4.558242E0,9.995471E0,1.2954551E1,1.7947754E1],"split_indices":[3,0,0,0,3,3,0,0,0,0,0,0,0,0,0],"split_type":[0,0,0,0,0,0,0,0,0,0,0,0,0,0,0],"sum_hessian":[1.567E3,9.38E2,6.29E2,6.35E2,3.03E2,3E2,3.29E2,3.16E2,3.19E2,1.83E2,1.2E2,1.59E2,1.41E2,1.42E2,1.87E2],"tree_param":{"num_deleted":"0","num_feature":"7","num_nodes":"15","size_leaf_vector":"1"}},{"base_weights":[3.5320804E-1,-2.7511224E2,4.3200797E2,-3.7639432E2,-8.280659E1,2.705521E2,5.6596246E2,-1.1117078E1,-7.0277185E0,-3.7770405E0,5.437483E-1,4.44233E0,9.912217E0,1.3525563E1,1.8640818E1],"categories":[],"categories_nodes":[],"categories_segments":[],"categories_sizes":[],"default_left":[0,0,0,0,0,0,0,0,0,0,0,0,0,0,0],"id":7,"left_children":[1,3,5,7,9,11,13,-1,-1,-1,-1,-1,-1,-1,-1],"loss_changes":[1.8733742E8,1.8708608E7,1.3158448E7,2.697136E6,2.0000868E6,2.869432E6,2.387216E6,0E0,0E0,0E0,0E0,0E0,0E0,0E0,0E0],"parents":[2147483647,0,0,1,1,2,2,3,3,4,4,5,5,6,6],"right_children":[2,4,6,8,10,12,14,-1,-1,-1,-1,-1,-1,-1,-1],"split_conditions":[2.46E1,2.8E1,8E1,2.1E1,2.11E1,2.9E1,1.15E2,-1.1117078E1,-7.0277185E0,-3.7770405E0,5.437483E-1,4.44233E0,9.912217E0,1.3525563E1,1.8640818E1],"split_indices":[3,0,0,0,3,3,0,0,0,0,0,0,0,0,0],"split_type":[0,0,0,0,0,0,0,0,0,0,0,0,0,0,0],"sum_hessian":[1.574E3,9.61E2,6.13E2,6.29E2,3.32E2,2.79E2,3.34E2,4.68E2,1.61E2,2.12E2,1.2E2,1.37E2,1.42E2,2.3E2,1.04E2],"tree_param":{"num_deleted":"0","num_feature":"7","num_nodes":"15","size_leaf_vector":"1"}},{"base_weights":[-2.9272494E0,-2.750979E2,4.1234454E2,-3.687646E2,-8.995852E1,2.4973843E2,5.5495715E2,-1.1529668E1,-8.139481E0,-3.9249759E0,2.0695095E-1,4.2478476E0,9.504643E0,1.3320381E1,1.8076122E1],"categories":[],"categories_nodes":[],"categories_segments":[],"categories_sizes":[],"default_left":[0,0,0,0,0,0,0,0,0,0,0,0,0,0,0],"id":8,"left_children":[1,3,5,7,9,11,13,-1,-1,-1,-1,-1,-1,-1,-1],"loss_changes":[1.78637E8,1.6531664E7,1.4406352E7,2.438696E6,1.779942E6,2.772566E6,2.045456E6,0E0,0E0,0E0,0E0,0E0,0E0,0E0,0E0],"parents":[2147483647,0,0,1,1,2,2,3,3,4,4,5,5,6,6],"right_children":[2,4,6,8,10,12,14,-1,-1,-1,-1,-1,-1,-1,-1],"split_conditions":[2.42E1,2.8E1,8E1,1.4E1,2.07E1,2.9E1,1.15E2,-1.1529668E1,-8.139481E0,-3.9249759E0,2.0695095E-1,4.2478476E0,9.504643E0,1.3320381E1,1.8076122E1],"split_indices":[3,0,0,0,3,3,0,0,0,0,0,0,0,0,0],"split_type":[0,0,0,0,0,0,0,0,0,0,0,0,0,0,0],"sum_hessian":[1.579E3,9.54E2,6.25E2,6.33E2,3.21E2,2.93E2,3.32E2,3.22E2,3.11E2,2.03E2,1.18E2,1.58E2,1.35E2,2.27E2,1.05E2],"tree_param":{"num_deleted":"0","num_feature":"7","num_nodes":"15","size_leaf_vector":"1"}},{"base_weights":[-1.7989528E0,-2.689624E2,4.0202853E2,-3.52054E2,-7.074709E1,2.4330708E2,5.36538E2,-1.0787165E1,-7.274028E0,-3.5671077E0,4.2030668E-1,3.0141773E0,8.044912E0,1.2244674E1,1.5596382E1],"categories":[],"categories_nodes":[],"categories_segments":[],"categories_sizes":[],"default_left":[0,0,0,0,0,0,0,0,0,0,0,0,0,0,0],"id":9,"left_children":[1,3,5,7,9,11,13,-1,-1,-1,-1,-1,-1,-1,-1],"loss_changes":[1.6738928E8,1.5360104E7,1.3090144E7,2.602152E6,1.4956112E6,2.100238E6,1.012368E6,0E0,0E0,0E0,0E0,0E0,0E0,0E0,0E0],"parents":[2147483647,0,0,1,1,2,2,3,3,4,4,5,5,6,6],"right_children":[2,4,6,8,10,12,14,-1,-1,-1,-1,-1,-1,-1,-1],"split_conditions":[2.42E1,1.68E1,3.16E1,1.3E1,2.05E1,2.7E1,1.66E1,-1.0787165E1,-7.274028E0,-3.5671077E0,4.2030668E-1,3.0141773E0,8.044912E0,1.2244674E1,1.5596382E1],"split_indices":[3,3,3,3,3,3,1,0,0,0,0,0,0,0,0],"split_type":[0,0,0,0,0,0,0,0,0,0,0,0,0,0,0],"sum_hessian":[1.55E3,9.33E2,6.17E2,6.57E2,2.76E2,2.84E2,3.33E2,4.01E2,2.56E2,1.6E2,1.16E2,8.7E1,1.97E2,1.25E2,2.08E2],"tree_param":{"num_deleted":"0","num_feature":"7","num_nodes":"15","size_leaf_vector":"1"}},{"base_weights":[-7.5479403E0,-2.5877982E2,4.0301508E2,-3.489139E2,-7.811567E1,2.4593565E2,5.271563E2,-1.0942935E1,-7.672517E0,-3.683649E0,4.1085094E-1,4.283709E0,9.013116E0,1.158489E1,1.6438192E1],"categories":[],"categories_nodes":[],"categories_segments":[],"categories_sizes":[],"default_left":[0,0,0,0,0,0,0,0,0,0,0,0,0,0,0],"id":10,"left_children":[1,3,5,7,9,11,13,-1,-1,-1,-1,-1,-1,-1,-1],"loss_changes":[1.6023989E8,1.5673144E7,1.1402288E7,2.306736E6,1.7888022E6,1.99873E6,2.4936E6,0E0,0E0,0E0,0E0,0E0,0E0,0E0,0E0],"parents":[2147483647,0,0,1,1,2,2,3,3,4,4,5,5,6,6],"right_children":[2,4,6,8,10,12,14,-1,-1,-1,-1,-1,-1,-1,-1],"split_conditions":[2.46E1,2.8E1,3.16E1,1.4E1,2.07E1,2.9E1,1.01E2,-1.0942935E1,-7.672517E0,-3.683649E0,4.1085094E-1,4.283709E0,9.013116E0,1.158489E1,1.6438192E1],"split_indices":[3,0,3,0,3,3,0,0,0,0,0,0,0,0,0],"split_type":[0,0,0,0,0,0,0,0,0,0,0,0,0,0,0],"sum_hessian":[1.552E3,9.63E2,5.89E2,6.42E2,3.21E2,2.61E2,3.28E2,3.26E2,3.16E2,1.96E2,1.25E2,1.35E2,1.26E2,1.59E2,1.69E2],"tree_param":{"num_deleted":"0","num_feature":"7","num_nodes":"15","size_leaf_vector":"1"}},{"base_weights":[7.245683E0,-2.4485658E2,3.870463E2,-3.3796063E2,-7.096885E1,2.3094891E2,5.13856E2,-1.0018796E1,-6.192385E0,-3.339648E0,6.559627E-1,2.630864E0,7.5774364E0,1.2225781E1,1.715887E1],"categories":[],"categories_nodes":[],"categories_segments":[],"categories_sizes":[],"default_left":[0,0,0,0,0,0,0,0,0,0,0,0,0,0,0],"id":11,"left_children":[1,3,5,7,9,11,13,-1,-1,-1,-1,-1,-1,-1,-1],"loss_changes":[1.5066056E8,1.5293272E7,1.2336528E7,2.310256E6,1.6990069E6,1.930125E6,2.29424E6,0E0,0E0,0E0,0E0,0E0,0E0,0E0,0E0],"parents":[2147483647,0,0,1,1,2,2,3,3,4,4,5,5,6,6],"right_children":[2,4,6,8,10,12,14,-1,-1,-1,-1,-1,-1,-1,-1],"split_conditions":[2.46E1,2.8E1,3.16E1,2.1E1,2.11E1,2.7E1,1.15E2,-1.0018796E1,-6.192385E0,-3.339648E0,6.559627E-1,2.630864E0,7.5774364E0,1.2225781E1,1.715887E1],"split_indices":[3,0,3,0,3,3,0,0,0,0,0,0,0,0,0],"split_type":[0,0,0,0,0,0,0,0,0,0,0,0,0,0,0],"sum_hessian":[1.572E3,9.45E2,6.27E2,6.15E2,3.3E2,2.82E2,3.45E2,4.58E2,1.57E2,2.11E2,1.19E2,8E1,2.02E2,2.4E2,1.05E2],"tree_param":{"num_deleted":"0","num_feature":"7","num_nodes":"15","size_leaf_vector":"1"}},{"base_weights":[4.0206165E0,-2.4615092E2,3.783214E2,-3.228187E2,-6.939796E1,2.2675401E2,5.0660565E2,-9.809269E0,-6.4159513E0,-3.0447617E0,3.1881902E-1,3.7216966E0,8.375566E0,1.1509178E1,1.481311E1],"categories":[],"categories_nodes":[],"categories_segments":[],"categories_sizes":[],"default_left":[0,0,0,0,0,0,0,0,0,0,0,0,0,0,0],"id":12,"left_children":[1,3,5,7,9,11,13,-1,-1,-1,-1,-1,-1,-1,-1],"loss_changes":[1.4603112E8,1.2650128E7,1.2060752E7,2.291848E6,1.0229295E6,2.139361E6,1.028024E6,0E0,0E0,0E0,0E0,0E0,0E0,0E0,0E0],"parents":[2147483647,0,0,1,1,2,2,3,3,4,4,5,5,6,6],"right_children":[2,4,6,8,10,12,14,-1,-1,-1,-1,-1,-1,-1,-1],"split_conditions":[2.42E1,1.68E1,3.16E1,1.34E1,2.11E1,2.85E1,1.66E1,-9.809269E0,-6.4159513E0,-3.0447617E0,3.1881902E-1,3.7216966E0,8.375566E0,1.1509178E1,1.481311E1],"split_indices":[3,3,3,3,3,3,1,0,0,0,0,0,0,0,0],"split_type":[0,0,0,0,0,0,0,0,0,0,0,0,0,0,0],"sum_hessian":[1.558E3,9.34E2,6.24E2,6.51E2,2.83E2,2.87E2,3.37E2,4.26E2,2.25E2,1.83E2,1E2,1.43E2,1.44E2,1.3E2,2.07E2],"tree_param":{"num_deleted":"0","num_feature":"7","num_nodes":"15","size_leaf_vector":"1"}},{"base_weights":[-1.0846987E0,-2.2957419E2,3.7531305E2,-3.207E2,-6.691707E1,2.337615E2,4.9166083E2,-1.0142362E1,-7.0288963E0,-3.313046E0,6.28504E-1,4.2989225E0,7.9823837E0,1.1800274E1,1.6005283E1],"categories":[],"categories_nodes":[],"categories_segments":[],"categories_sizes":[],"default_left":[0,0,0,0,0,0,0,0,0,0,0,0,0,0,0],"id":13,"left_children":[1,3,5,7,9,11,13,-1,-1,-1,-1,-1,-1,-1,-1],"loss_changes":[1.3541248E8,1.4505924E7,9.708296E6,2.046072E6,1.8130241E6,1.234242E6,1.563024E6,0E0,0E0,0E0,0E0,0E0,0E0,0E0,0E0],"parents":[2147483647,0,0,1,1,2,2,3,3,4,4,5,5,6,6],"right_children":[2,4,6,8,10,12,14,-1,-1,-1,-1,-1,-1,-1,-1],"split_conditions":[2.55E1,2.8E1,8E1,1.4E1,2.11E1,2.9E1,1.15E2,-1.0142362E1,-7.0288963E0,-3.313046E0,6.28504E-1,4.2989225E0,7.9823837E0,1.1800274E1,1.6005283E1],"split_indices":[3,0,0,0,3,3,0,0,0,0,0,0,0,0,0],"split_type":[0,0,0,0,0,0,0,0,0,0,0,0,0,0,0],"sum_hessian":[1.573E3,9.79E2,5.94E2,6.27E2,3.52E2,2.69E2,3.25E2,3.12E2,3.15E2,2.16E2,1.36E2,1.27E2,1.42E2,2.22E2,1.03E2],"tree_param":{"num_deleted":"0","num_feature":"7","num_nodes":"15","size_leaf_vector":"1"}},{"base_weights":[4.1017494E0,-2.3398889E2,3.4569672E2,-3.1155124E2,-7.331338E1,2.0233093E2,4.6953558E2,-9.859757E0,-6.8361745E0,-3.6081176E0,-3.5196674E-1,2.089504E0,6.5876245E0,1.1228292E1,1.5293079E1],"categories":[],"categories_nodes":[],"categories_segments":[],"categories_sizes":[],"default_left":[0,0,0,0,0,0,0,0,0,0,0,0,0,0,0],"id":14,"left_children":[1,3,5,7,9,11,13,-1,-1,-1,-1,-1,-1,-1,-1],"loss_changes":[1.2707943E8,1.1457488E7,1.132208E7,1.907144E6,1.1100566E6,1.606688E6,1.573264E6,0E0,0E0,0E0,0E0,0E0,0E0,0E0,0E0],"parents":[2147483647,0,0,1,1,2,2,3,3,4,4,5,5,6,6],"right_children":[2,4,6,8,10,12,14,-1,-1,-1,-1,-1,-1,-1,-1],"split_conditions":[5.2E1,2.8E1,8E1,1.4E1,3.8E1,9E0,1.15E2,-9.859757E0,-6.8361745E0,-3.6081176E0,-3.5196674E-1,2.089504E0,6.5876245E0,1.1228292E1,1.5293079E1],"split_indices":[0,0,0,0,0,4,0,0,0,0,0,0,0,0,0],"split_type":[0,0,0,0,0,0,0,0,0,0,0,0,0,0,0],"sum_hessian":[1.561E3,9.2E2,6.41E2,6.2E2,3E2,2.98E2,3.43E2,3.07E2,3.13E2,1.48E2,1.52E2,7.8E1,2.2E2,2.32E2,1.11E2],"tree_param":{"num_deleted":"0","num_feature":"7","num_nodes":"15","size_leaf_vector":"1"}},{"base_weights":[2.2452874E0,-2.3608157E2,3.327667E2,-3.361656E2,-1.2813527E2,1.9369943E2,4.609892E2,-1.0231453E1,-8.355589E0,-4.764785E0,-7.9893434E-1,2.055202E0,6.8999977E0,1.097112E1,1.5319219E1],"categories":[],"categories_nodes":[],"categories_segments":[],"categories_sizes":[],"default_left":[0,0,0,0,0,0,0,0,0,0,0,0,0,0,0],"id":15,"left_children":[1,3,5,7,9,11,13,-1,-1,-1,-1,-1,-1,-1,-1],"loss_changes":[1.24421144E8,9.882564E6,1.1732632E7,4.374E5,2.1627765E6,2.369131E6,1.781968E6,0E0,0E0,0E0,0E0,0E0,0E0,0E0,0E0],"parents":[2147483647,0,0,1,1,2,2,3,3,4,4,5,5,6,6],"right_children":[2,4,6,8,10,12,14,-1,-1,-1,-1,-1,-1,-1,-1],"split_conditions":[2.35E1,2.1E1,8E1,7E0,1.89E1,2.7E1,1.15E2,-1.0231453E1,-8.355589E0,-4.764785E0,-7.9893434E-1,2.055202E0,6.8999977E0,1.097112E1,1.5319219E1],"split_indices":[3,0,0,0,3,3,0,0,0,0,0,0,0,0,0],"split_type":[0,0,0,0,0,0,0,0,0,0,0,0,0,0,0],"sum_hessian":[1.578E3,9.17E2,6.61E2,4.75E2,4.42E2,3.18E2,3.43E2,1.6E2,3.15E2,2.93E2,1.49E2,1.13E2,2.05E2,2.37E2,1.06E2],"tree_param":{"num_deleted":"0","num_feature":"7","num_nodes":"15","size_leaf_vector":"1"}},{"base_weights":[3.8367336E0,-2.1437576E2,3.3527664E2,-2.8874496E2,-5.6352776E1,2.0801105E2,4.440773E2,-8.763415E0,-5.4047103E0,-3.422783E0,-1.4431822E-1,3.5825903E0,7.6430006E0,1.062287E1,1.4794403E1],"categories":[],"categories_nodes":[],"categories_segments":[],"categories_sizes":[],"default_left":[0,0,0,0,0,0,0,0,0,0,0,0,0,0,0],"id":16,"left_children":[1,3,5,7,9,11,13,-1,-1,-1,-1,-1,-1,-1,-1],"loss_changes":[1.1199456E8,1.0961188E7,8.44244E6,2.073704E6,1.0910636E6,1.606904E6,1.533728E6,0E0,0E0,0E0,0E0,0E0,0E0,0E0,0E0],"parents":[2147483647,0,0,1,1,2,2,3,3,4,4,5,5,6,6],"right_children":[2,4,6,8,10,12,14,-1,-1,-1,-1,-1,-1,-1,-1],"split_conditions":[2.46E1,1.7E1,8E1,2.1E1,3.8E1,2.9E1,1.15E2,-8.763415E0,-5.4047103E0,-3.422783E0,-1.4431822E-1,3.5825903E0,7.6430006E0,1.062287E1,1.4794403E1],"split_indices":[3,3,0,0,0,3,0,0,0,0,0,0,0,0,0],"split_type":[0,0,0,0,0,0,0,0,0,0,0,0,0,0,0],"sum_hessian":[1.547E3,9.33E2,6.14E2,6.34E2,2.99E2,2.84E2,3.3E2,4.38E2,1.96E2,1.24E2,1.75E2,1.46E2,1.38E2,2.32E2,9.8E1],"tree_param":{"num_deleted":"0","num_feature":"7","num_nodes":"15","size_leaf_vector":"1"}},{"base_weights":[-1.3179951E0,-2.1563223E2,3.2158038E2,-2.87476E2,-7.0901436E1,1.9228705E2,4.4087677E2,-9.135143E0,-6.293807E0,-3.4016905E0,-2.2339192E-1,2.374804E0,6.3562884E0,1.05086775E1,1.453582E1],"categories":[],"categories_nodes":[],"categories_segments":[],"categories_sizes":[],"default_left":[0,0,0,0,0,0,0,0,0,0,0,0,0,0,0],"id":17,"left_children":[1,3,5,7,9,11,13,-1,-1,-1,-1,-1,-1,-1,-1],"loss_changes":[1.0750559E8,9.693748E6,9.49516E6,1.69454E6,1.0901851E6,1.378867E6,1.428532E6,0E0,0E0,0E0,0E0,0E0,0E0,0E0,0E0],"parents":[2147483647,0,0,1,1,2,2,3,3,4,4,5,5,6,6],"right_children":[2,4,6,8,10,12,14,-1,-1,-1,-1,-1,-1,-1,-1],"split_conditions":[2.42E1,2.8E1,8E1,1.4E1,1.96E1,2.7E1,1.15E2,-9.135143E0,-6.293807E0,-3.4016905E0,-2.2339192E-1,2.374804E0,6.3562884E0,1.05086775E1,1.453582E1],"split_indices":[3,0,0,0,3,3,0,0,0,0,0,0,0,0,0],"split_type":[0,0,0,0,0,0,0,0,0,0,0,0,0,0,0],"sum_hessian":[1.552E3,9.33E2,6.19E2,6.23E2,3.1E2,2.98E2,3.21E2,3.06E2,3.17E2,1.63E2,1.47E2,9.1E1,2.07E2,2.2E2,1.01E2],"tree_param":{"num_deleted":"0","num_feature":"7","num_nodes":"15","size_leaf_vector":"1"}},{"base_weights":[1.202196E0,-2.1295372E2,3.1464597E2,-3.098897E2,-1.1231851E2,1.8691011E2,4.2396155E2,-9.490776E0,-7.672617E0,-4.2442546E0,-4.2803282E-1,1.9776936E0,6.1110716E0,9.229741E0,1.298436E1],"categories":[],"categories_nodes":[],"categories_segments":[],"categories_sizes":[],"default_left":[0,0,0,0,0,0,0,0,0,0,0,0,0,0,0],"id":18,"left_children":[1,3,5,7,9,11,13,-1,-1,-1,-1,-1,-1,-1,-1],"loss_changes":[1.062943E8,9.150888E6,8.915224E6,4.21612E5,2.056051E6,1.376938E6,1.543432E6,0E0,0E0,0E0,0E0,0E0,0E0,0E0,0E0],"parents":[2147483647,0,0,1,1,2,2,3,3,4,4,5,5,6,6],"right_children":[2,4,6,8,10,12,14,-1,-1,-1,-1,-1,-1,-1,-1],"split_conditions":[5.2E1,2.1E1,8E1,7E0,3.8E1,9E0,1.01E2,-9.490776E0,-7.672617E0,-4.2442546E0,-4.2803282E-1,1.9776936E0,6.1110716E0,9.229741E0,1.298436E1],"split_indices":[0,0,0,0,0,4,0,0,0,0,0,0,0,0,0],"split_type":[0,0,0,0,0,0,0,0,0,0,0,0,0,0,0],"sum_hessian":[1.582E3,9.4E2,6.42E2,4.78E2,4.62E2,2.97E2,3.45E2,1.61E2,3.17E2,3.12E2,1.5E2,8E1,2.17E2,1.52E2,1.93E2],"tree_param":{"num_deleted":"0","num_feature":"7","num_nodes":"15","size_leaf_vector":"1"}},{"base_weights":[7.1443975E-1,-1.8163007E2,3.383354E2,-2.635699E2,-2.20228E1,2.6939E2,4.749281E2,-8.08751E0,-4.737264E0,-2.3844295E0,9.3957365E-1,4.7789316E0,8.322252E0,1.1118842E1,1.3845315E1],"categories":[],"categories_nodes":[],"categories_segments":[],"categories_sizes":[],"default_left":[0,0,0,0,0,0,0,0,0,0,0,0,0,0,0],"id":19,"left_children":[1,3,5,7,9,11,13,-1,-1,-1,-1,-1,-1,-1,-1],"loss_changes":[9.6685704E7,1.333212E7,5.090036E6,2.203456E6,1.3293676E6,1.341586E6,2.99672E5,0E0,0E0,0E0,0E0,0E0,0E0,0E0,0E0],"parents":[2147483647,0,0,1,1,2,2,3,3,4,4,5,5,6,6],"right_children":[2,4,6,8,10,12,14,-1,-1,-1,-1,-1,-1,-1,-1],"split_conditions":[2.65E1,1.71E1,1.01E2,2.1E1,2.11E1,2.97E1,1.15E2,-8.08751E0,-4.737264E0,-2.3844295E0,9.3957365E-1,4.7789316E0,8.322252E0,1.1118842E1,1.3845315E1],"split_indices":[3,3,0,0,3,3,0,0,0,0,0,0,0,0,0],"split_type":[0,0,0,0,0,0,0,0,0,0,0,0,0,0,0],"sum_hessian":[1.569E3,1.019E3,5.5E2,6.73E2,3.46E2,3.67E2,1.83E2,4.65E2,2.08E2,1.59E2,1.87E2,1.16E2,2.51E2,7.9E1,1.04E2],"tree_param":{"num_deleted":"0","num_feature":"7","num_nodes":"15","size_leaf_vector":"1"}},{"base_weights":[-2.1434803E0,-1.9856438E2,2.965702E2,-2.6695288E2,-6.463437E1,1.777866E2,3.9891354E2,-8.418325E0,-5.834577E0,-2.6890695E0,3.9815053E-1,2.3150358E0,6.174034E0,8.8111925E0,1.2341173E1],"categories":[],"categories_nodes":[],"categories_segments":[],"categories_sizes":[],"default_left":[0,0,0,0,0,0,0,0,0,0,0,0,0,0,0],"id":20,"left_children":[1,3,5,7,9,11,13,-1,-1,-1,-1,-1,-1,-1,-1],"loss_changes":[9.343838E7,8.78674E6,7.626452E6,1.4272E6,9.2769275E5,1.400444E6,1.351468E6,0E0,0E0,0E0,0E0,0E0,0E0,0E0,0E0],"parents":[2147483647,0,0,1,1,2,2,3,3,4,4,5,5,6,6],"right_children":[2,4,6,8,10,12,14,-1,-1,-1,-1,-1,-1,-1,-1],"split_conditions":[2.42E1,2.8E1,3.16E1,1.4E1,8.2E0,2.75E1,1.01E2,-8.418325E0,-5.834577E0,-2.6890695E0,3.9815053E-1,2.3150358E0,6.174034E0,8.8111925E0,1.2341173E1],"split_indices":[3,0,3,0,5,3,0,0,0,0,0,0,0,0,0],"split_type":[0,0,0,0,0,0,0,0,0,0,0,0,0,0,0],"sum_hessian":[1.591E3,9.6E2,6.31E2,6.35E2,3.25E2,2.93E2,3.38E2,3.21E2,3.14E2,2.24E2,1.01E2,1.08E2,1.85E2,1.61E2,1.77E2],"tree_param":{"num_deleted":"0","num_feature":"7","num_nodes":"15","size_leaf_vector":"1"}},{"base_weights":[-2.937535E0,-1.8387997E2,3.051267E2,-2.5157758E2,-3.763229E1,1.915596E2,3.8815115E2,-7.7559705E0,-4.931311E0,-2.3113298E0,6.702339E-1,3.274196E0,6.6794624E0,8.886251E0,1.1368465E1],"categories":[],"categories_nodes":[],"categories_segments":[],"categories_sizes":[],"default_left":[0,0,0,0,0,0,0,0,0,0,0,0,0,0,0],"id":21,"left_children":[1,3,5,7,9,11,13,-1,-1,-1,-1,-1,-1,-1,-1],"loss_changes":[8.748766E7,9.78209E6,5.419644E6,1.693024E6,9.58553E5,9.66251E5,5.79148E5,0E0,0E0,0E0,0E0,0E0,0E0,0E0,0E0],"parents":[2147483647,0,0,1,1,2,2,3,3,4,4,5,5,6,6],"right_children":[2,4,6,8,10,12,14,-1,-1,-1,-1,-1,-1,-1,-1],"split_conditions":[2.55E1,1.7E1,3.16E1,1.34E1,2.11E1,2.85E1,1.66E1,-7.7559705E0,-4.931311E0,-2.3113298E0,6.702339E-1,3.274196E0,6.6794624E0,8.886251E0,1.1368465E1],"split_indices":[3,3,3,3,3,3,1,0,0,0,0,0,0,0,0],"split_type":[0,0,0,0,0,0,0,0,0,0,0,0,0,0,0],"sum_hessian":[1.568E3,9.88E2,5.8E2,6.75E2,3.13E2,2.46E2,3.34E2,4.3E2,2.45E2,1.76E2,1.37E2,1.13E2,1.33E2,1.34E2,2E2],"tree_param":{"num_deleted":"0","num_feature":"7","num_nodes":"15","size_leaf_vector":"1"}},{"base_weights":[1.628204E0,-1.8634085E2,2.8968323E2,-2.5369943E2,-5.4275024E1,1.7299594E2,3.8735617E2,-7.988113E0,-5.529315E0,-3.0308177E0,8.229901E-2,2.9484253E0,6.3284574E0,9.214419E0,1.2874441E1],"categories":[],"categories_nodes":[],"categories_segments":[],"categories_sizes":[],"default_left":[0,0,0,0,0,0,0,0,0,0,0,0,0,0,0],"id":22,"left_children":[1,3,5,7,9,11,13,-1,-1,-1,-1,-1,-1,-1,-1],"loss_changes":[8.498164E7,8.438354E6,7.012804E6,1.27738E6,1.0870568E6,1.110319E6,1.236236E6,0E0,0E0,0E0,0E0,0E0,0E0,0E0,0E0],"parents":[2147483647,0,0,1,1,2,2,3,3,4,4,5,5,6,6],"right_children":[2,4,6,8,10,12,14,-1,-1,-1,-1,-1,-1,-1,-1],"split_conditions":[2.46E1,2.8E1,8E1,1.4E1,1.96E1,2.9E1,1.15E2,-7.988113E0,-5.529315E0,-3.0308177E0,8.229901E-2,2.9484253E0,6.3284574E0,9.214419E0,1.2874441E1],"split_indices":[3,0,0,0,3,3,0,0,0,0,0,0,0,0,0],"split_type":[0,0,0,0,0,0,0,0,0,0,0,0,0,0,0],"sum_hessian":[1.568E3,9.49E2,6.19E2,6.28E2,3.21E2,2.83E2,3.36E2,3.21E2,3.07E2,1.58E2,1.63E2,1.43E2,1.4E2,2.32E2,1.04E2],"tree_param":{"num_deleted":"0","num_feature":"7","num_nodes":"15","size_leaf_vector":"1"}},{"base_weights":[-2.4135025E-1,-1.7880515E2,2.7952963E2,-2.565325E2,-7.032642E1,1.7118005E2,3.6774542E2,-7.648299E0,-5.6948853E0,-3.0232773E0,2.3951621E-1,2.8971436E0,6.358422E0,7.9675536E0,1.0934049E1],"categories":[],"categories_nodes":[],"categories_segments":[],"categories_sizes":[],"default_left":[0,0,0,0,0,0,0,0,0,0,0,0,0,0,0],"id":23,"left_children":[1,3,5,7,9,11,13,-1,-1,-1,-1,-1,-1,-1,-1],"loss_changes":[7.895744E7,8.120916E6,5.83788E6,6.70436E5,1.363082E6,1.13977E6,8.72692E5,0E0,0E0,0E0,0E0,0E0,0E0,0E0,0E0],"parents":[2147483647,0,0,1,1,2,2,3,3,4,4,5,5,6,6],"right_children":[2,4,6,8,10,12,14,-1,-1,-1,-1,-1,-1,-1,-1],"split_conditions":[2.46E1,1.54E1,3.16E1,6.4E0,2.05E1,2.9E1,1.66E1,-7.648299E0,-5.6948853E0,-3.0232773E0,2.3951621E-1,2.8971436E0,6.358422E0,7.9675536E0,1.0934049E1],"split_indices":[3,3,3,2,3,3,1,0,0,0,0,0,0,0,0],"split_type":[0,0,0,0,0,0,0,0,0,0,0,0,0,0,0],"sum_hessian":[1.579E3,9.64E2,6.15E2,5.61E2,4.03E2,2.77E2,3.38E2,3.35E2,2.26E2,2.62E2,1.41E2,1.43E2,1.34E2,1.26E2,2.12E2],"tree_param":{"num_deleted":"0","num_feature":"7","num_nodes":"15","size_leaf_vector":"1"}},{"base_weights":[1.2569833E0,-1.639293E2,2.9591318E2,-2.3593637E2,-2.9285555E1,2.0852525E2,3.7351822E2,-7.081798E0,-4.3419657E0,-2.8454545E0,3.1000197E-1,4.074158E0,6.6275578E0,8.417469E0,1.1147641E1],"categories":[],"categories_nodes":[],"categories_segments":[],"categories_sizes":[],"default_left":[0,0,0,0,0,0,0,0,0,0,0,0,0,0,0],"id":24,"left_children":[1,3,5,7,9,11,13,-1,-1,-1,-1,-1,-1,-1,-1],"loss_changes":[7.692828E7,9.813702E6,3.7915E6,1.355428E6,1.1134648E6,5.61878E5,6.59684E5,0E0,0E0,0E0,0E0,0E0,0E0,0E0,0E0],"parents":[2147483647,0,0,1,1,2,2,3,3,4,4,5,5,6,6],"right_children":[2,4,6,8,10,12,14,-1,-1,-1,-1,-1,-1,-1,-1],"split_conditions":[2.65E1,1.68E1,3.26E1,2.1E1,3.8E1,1.48E1,1.01E2,-7.081798E0,-4.3419657E0,-2.8454545E0,3.1000197E-1,4.074158E0,6.6275578E0,8.417469E0,1.1147641E1],"split_indices":[3,3,3,0,0,2,0,0,0,0,0,0,0,0,0],"split_type":[0,0,0,0,0,0,0,0,0,0,0,0,0,0,0],"sum_hessian":[1.579E3,1.012E3,5.67E2,6.59E2,3.53E2,2.68E2,2.99E2,4.74E2,1.85E2,1.22E2,2.31E2,1.11E2,1.57E2,1.28E2,1.71E2],"tree_param":{"num_deleted":"0","num_feature":"7","num_nodes":"15","size_leaf_vector":"1"}},{"base_weights":[1.6879115E0,-1.6578084E2,2.743845E2,-2.339402E2,-4.1528313E1,1.715675E2,3.536617E2,-7.3852324E0,-5.104908E0,-2.352984E0,5.568317E-1,3.0636187E0,6.0107713E0,8.410833E0,1.1969475E1],"categories":[],"categories_nodes":[],"categories_segments":[],"categories_sizes":[],"default_left":[0,0,0,0,0,0,0,0,0,0,0,0,0,0,0],"id":25,"left_children":[1,3,5,7,9,11,13,-1,-1,-1,-1,-1,-1,-1,-1],"loss_changes":[7.258982E7,8.332484E6,4.883512E6,1.112256E6,1.01131706E6,7.80937E5,1.152628E6,0E0,0E0,0E0,0E0,0E0,0E0,0E0,0E0],"parents":[2147483647,0,0,1,1,2,2,3,3,4,4,5,5,6,6],"right_children":[2,4,6,8,10,12,14,-1,-1,-1,-1,-1,-1,-1,-1],"split_conditions":[2.55E1,2.8E1,3.16E1,1.4E1,2.1E1,2.9E1,1.15E2,-7.3852324E0,-5.104908E0,-2.352984E0,5.568317E-1,3.0636187E0,6.0107713E0,8.410833E0,1.1969475E1],"split_indices":[3,0,3,0,3,3,0,0,0,0,0,0,0,0,0],"split_type":[0,0,0,0,0,0,0,0,0,0,0,0,0,0,0],"sum_hessian":[1.588E3,9.84E2,6.04E2,6.35E2,3.49E2,2.64E2,3.4E2,3.21E2,3.14E2,2E2,1.49E2,1.28E2,1.36E2,2.41E2,9.9E1],"tree_param":{"num_deleted":"0","num_feature":"7","num_nodes":"15","size_leaf_vector":"1"}},{"base_weights":[1.1960038E0,-1.6889552E2,2.560929E2,-2.2718484E2,-5.242228E1,1.6458842E2,3.552198E2,-6.7330875E0,-4.139023E0,-2.1987932E0,2.6067588E-1,1.7352028E0,5.3914347E0,7.721133E0,1.0803966E1],"categories":[],"categories_nodes":[],"categories_segments":[],"categories_sizes":[],"default_left":[0,0,0,0,0,0,0,0,0,0,0,0,0,0,0],"id":26,"left_children":[1,3,5,7,9,11,13,-1,-1,-1,-1,-1,-1,-1,-1],"loss_changes":[6.7570344E7,6.337152E6,5.6136E6,1.066686E6,5.776189E5,1.18418E6,8.75728E5,0E0,0E0,0E0,0E0,0E0,0E0,0E0,0E0],"parents":[2147483647,0,0,1,1,2,2,3,3,4,4,5,5,6,6],"right_children":[2,4,6,8,10,12,14,-1,-1,-1,-1,-1,-1,-1,-1],"split_conditions":[2.42E1,2.8E1,3.26E1,2.1E1,2.11E1,2.7E1,1.01E2,-6.7330875E0,-4.139023E0,-2.1987932E0,2.6067588E-1,1.7352028E0,5.3914347E0,7.721133E0,1.0803966E1],"split_indices":[3,0,3,0,3,3,0,0,0,0,0,0,0,0,0],"split_type":[0,0,0,0,0,0,0,0,0,0,0,0,0,0,0],"sum_hessian":[1.557E3,9.34E2,6.23E2,6.22E2,3.12E2,3.25E2,2.98E2,4.65E2,1.57E2,2.11E2,1.01E2,8.8E1,2.37E2,1.27E2,1.71E2],"tree_param":{"num_deleted":"0","num_feature":"7","num_nodes":"15","size_leaf_vector":"1"}},{"base_weights":[1.0909247E0,-1.6635115E2,2.4002794E2,-2.440144E2,-8.588678E1,1.3853871E2,3.3469055E2,-7.603344E0,-5.9955816E0,-3.3657768E0,-1.7645186E-1,9.9353427E-1,4.7637753E0,7.108835E0,1.0461664E1],"categories":[],"categories_nodes":[],"categories_segments":[],"categories_sizes":[],"default_left":[0,0,0,0,0,0,0,0,0,0,0,0,0,0,0],"id":27,"left_children":[1,3,5,7,9,11,13,-1,-1,-1,-1,-1,-1,-1,-1],"loss_changes":[6.367322E7,5.83178E6,6.264924E6,3.34176E5,1.4532735E6,1.263133E6,1.23412E6,0E0,0E0,0E0,0E0,0E0,0E0,0E0,0E0],"parents":[2147483647,0,0,1,1,2,2,3,3,4,4,5,5,6,6],"right_children":[2,4,6,8,10,12,14,-1,-1,-1,-1,-1,-1,-1,-1],"split_conditions":[5.2E1,2.1E1,8E1,7E0,3.8E1,9E0,1.01E2,-7.603344E0,-5.9955816E0,-3.3657768E0,-1.7645186E-1,9.9353427E-1,4.7637753E0,7.108835E0,1.0461664E1],"split_indices":[0,0,0,0,0,4,0,0,0,0,0,0,0,0,0],"split_type":[0,0,0,0,0,0,0,0,0,0,0,0,0,0,0],"sum_hessian":[1.59E3,9.35E2,6.55E2,4.75E2,4.6E2,3.17E2,3.38E2,1.56E2,3.19E2,3.06E2,1.54E2,8.9E1,2.28E2,1.53E2,1.85E2],"tree_param":{"num_deleted":"0","num_feature":"7","num_nodes":"15","size_leaf_vector":"1"}},{"base_weights":[2.7441802E0,-1.4460886E2,2.6808133E2,-2.0992711E2,-2.6254328E1,2.137467E2,3.7457425E2,-6.3847294E0,-3.8347435E0,-2.4759824E0,3.3390936E-1,3.7876434E0,6.689754E0,8.821515E0,1.0875497E1],"categories":[],"categories_nodes":[],"categories_segments":[],"categories_sizes":[],"default_left":[0,0,0,0,0,0,0,0,0,0,0,0,0,0,0],"id":28,"left_children":[1,3,5,7,9,11,13,-1,-1,-1,-1,-1,-1,-1,-1],"loss_changes":[6.0856532E7,7.732348E6,3.155228E6,1.199714E6,9.15406E5,9.37264E5,1.64888E5,0E0,0E0,0E0,0E0,0E0,0E0,0E0,0E0],"parents":[2147483647,0,0,1,1,2,2,3,3,4,4,5,5,6,6],"right_children":[2,4,6,8,10,12,14,-1,-1,-1,-1,-1,-1,-1,-1],"split_conditions":[2.65E1,1.7E1,1.01E2,2.1E1,3.8E1,3E1,1.15E2,-6.3847294E0,-3.8347435E0,-2.4759824E0,3.3390936E-1,3.7876434E0,6.689754E0,8.821515E0,1.0875497E1],"split_indices":[3,3,0,0,0,3,0,0,0,0,0,0,0,0,0],"split_type":[0,0,0,0,0,0,0,0,0,0,0,0,0,0,0],"sum_hessian":[1.555E3,1E3,5.55E2,6.44E2,3.56E2,3.69E2,1.86E2,4.5E2,1.94E2,1.31E2,2.25E2,1.24E2,2.45E2,8E1,1.06E2],"tree_param":{"num_deleted":"0","num_feature":"7","num_nodes":"15","size_leaf_vector":"1"}},{"base_weights":[-1.4076843E0,-1.5685152E2,2.3241415E2,-2.3212709E2,-7.903699E1,1.3986357E2,3.159303E2,-7.2310834E0,-5.650024E0,-3.2534652E0,-2.8652164E-1,1.6658211E0,4.7338896E0,7.576301E0,1.0504193E1],"categories":[],"categories_nodes":[],"categories_segments":[],"categories_sizes":[],"default_left":[0,0,0,0,0,0,0,0,0,0,0,0,0,0,0],"id":29,"left_children":[1,3,5,7,9,11,13,-1,-1,-1,-1,-1,-1,-1,-1],"loss_changes":[5.668224E7,5.473176E6,4.780144E6,3.38186E5,1.3385002E6,8.42127E5,7.39592E5,0E0,0E0,0E0,0E0,0E0,0E0,0E0,0E0],"parents":[2147483647,0,0,1,1,2,2,3,3,4,4,5,5,6,6],"right_children":[2,4,6,8,10,12,14,-1,-1,-1,-1,-1,-1,-1,-1],"split_conditions":[2.42E1,2.1E1,3.16E1,7E0,1.89E1,2.7E1,1.15E2,-7.2310834E0,-5.650024E0,-3.2534652E0,-2.8652164E-1,1.6658211E0,4.7338896E0,7.576301E0,1.0504193E1],"split_indices":[3,0,3,0,3,3,0,0,0,0,0,0,0,0,0],"split_type":[0,0,0,0,0,0,0,0,0,0,0,0,0,0,0],"sum_hessian":[1.558E3,9.36E2,6.22E2,4.75E2,4.61E2,2.96E2,3.26E2,1.67E2,3.08E2,2.84E2,1.77E2,9.6E1,2E2,2.3E2,9.6E1],"tree_param":{"num_deleted":"0","num_feature":"7","num_nodes":"15","size_leaf_vector":"1"}},{"base_weights":[4.4160166E0,-1.6842886E2,2.1402913E2,-2.2533296E2,-9.7587494E1,8.886291E1,2.9494333E2,-7.0408196E0,-5.533251E0,-3.6365263E0,-1.5801098E0,1.1801856E0,3.8630655E0,6.087852E0,9.205181E0],"categories":[],"categories_nodes":[],"categories_segments":[],"categories_sizes":[],"default_left":[0,0,0,0,0,0,0,0,0,0,0,0,0,0,0],"id":30,"left_children":[1,3,5,7,9,11,13,-1,-1,-1,-1,-1,-1,-1,-1],"loss_changes":[5.690028E7,3.453196E6,7.168364E6,2.94258E5,5.610705E5,6.8923525E5,1.36188E6,0E0,0E0,0E0,0E0,0E0,0E0,0E0,0E0],"parents":[2147483647,0,0,1,1,2,2,3,3,4,4,5,5,6,6],"right_children":[2,4,6,8,10,12,14,-1,-1,-1,-1,-1,-1,-1,-1],"split_conditions":[2.2E1,2.1E1,3E1,7E0,1.7E1,2.65E1,3.36E1,-7.0408196E0,-5.533251E0,-3.6365263E0,-1.5801098E0,1.1801856E0,3.8630655E0,6.087852E0,9.205181E0],"split_indices":[3,0,3,0,3,3,3,0,0,0,0,0,0,0,0],"split_type":[0,0,0,0,0,0,0,0,0,0,0,0,0,0,0],"sum_hessian":[1.569E3,8.6E2,7.09E2,4.76E2,3.84E2,2.79E2,4.3E2,1.55E2,3.21E2,1.92E2,1.92E2,1.55E2,1.24E2,1.82E2,2.48E2],"tree_param":{"num_deleted":"0","num_feature":"7","num_nodes":"15","size_leaf_vector":"1"}},{"base_weights":[2.7739987E-1,-1.459726E2,2.3009814E2,-1.987223E2,-4.2028416E1,1.4050919E2,3.0261356E2,-6.3217206E0,-4.3372936E0,-1.9630266E0,4.62948E-1,2.4634957E0,5.014426E0,6.546506E0,9.471778E0],"categories":[],"categories_nodes":[],"categories_segments":[],"categories_sizes":[],"default_left":[0,0,0,0,0,0,0,0,0,0,0,0,0,0,0],"id":31,"left_children":[1,3,5,7,9,11,13,-1,-1,-1,-1,-1,-1,-1,-1],"loss_changes":[5.339182E7,5.316332E6,3.98114E6,8.54708E5,6.089203E5,6.16763E5,9.46802E5,0E0,0E0,0E0,0E0,0E0,0E0,0E0,0E0],"parents":[2147483647,0,0,1,1,2,2,3,3,4,4,5,5,6,6],"right_children":[2,4,6,8,10,12,14,-1,-1,-1,-1,-1,-1,-1,-1],"split_conditions":[2.46E1,2.8E1,3.16E1,1.4E1,8.2E0,2.85E1,1.01E2,-6.3217206E0,-4.3372936E0,-1.9630266E0,4.62948E-1,2.4634957E0,5.014426E0,6.546506E0,9.471778E0],"split_indices":[3,0,3,0,5,3,0,0,0,0,0,0,0,0,0],"split_type":[0,0,0,0,0,0,0,0,0,0,0,0,0,0,0],"sum_hessian":[1.587E3,9.7E2,6.17E2,6.43E2,3.27E2,2.77E2,3.4E2,3.17E2,3.26E2,2.14E2,1.13E2,1.37E2,1.4E2,1.61E2,1.79E2],"tree_param":{"num_deleted":"0","num_feature":"7","num_nodes":"15","size_leaf_vector":"1"}},{"base_weights":[1.3748577E0,-1.2974663E2,2.4354756E2,-1.9484772E2,-2.7502613E1,1.9626451E2,3.356718E2,-6.133159E0,-4.223317E0,-1.9081647E0,6.421293E-1,4.046066E0,6.3998117E0,9.689512E0,7.6519866E0],"categories":[],"categories_nodes":[],"categories_segments":[],"categories_sizes":[],"default_left":[0,0,0,0,0,0,0,0,0,0,0,0,0,0,0],"id":32,"left_children":[1,3,5,7,9,11,13,-1,-1,-1,-1,-1,-1,-1,-1],"loss_changes":[5.0060444E7,6.803574E6,2.362308E6,7.6564E5,8.993794E5,6.82327E5,1.65696E5,0E0,0E0,0E0,0E0,0E0,0E0,0E0,0E0],"parents":[2147483647,0,0,1,1,2,2,3,3,4,4,5,5,6,6],"right_children":[2,4,6,8,10,12,14,-1,-1,-1,-1,-1,-1,-1,-1],"split_conditions":[2.65E1,2.8E1,1.01E2,1.4E1,2.11E1,1.09E1,8.3E0,-6.133159E0,-4.223317E0,-1.9081647E0,6.421293E-1,4.046066E0,6.3998117E0,9.689512E0,7.6519866E0],"split_indices":[3,0,0,0,3,4,6,0,0,0,0,0,0,0,0],"split_type":[0,0,0,0,0,0,0,0,0,0,0,0,0,0,0],"sum_hessian":[1.575E3,1.022E3,5.53E2,6.24E2,3.98E2,3.67E2,1.86E2,3.23E2,3.01E2,2.15E2,1.83E2,1.8E2,1.87E2,1.19E2,6.7E1],"tree_param":{"num_deleted":"0","num_feature":"7","num_nodes":"15","size_leaf_vector":"1"}},{"base_weights":[-4.0012178E-1,-1.2707212E2,2.3157759E2,-1.8470357E2,-1.8589266E1,1.414002E2,2.8552008E2,-5.9910903E0,-3.983269E0,-2.214145E0,3.7543947E-1,2.5531306E0,4.812722E0,6.759039E0,9.653803E0],"categories":[],"categories_nodes":[],"categories_segments":[],"categories_sizes":[],"default_left":[0,0,0,0,0,0,0,0,0,0,0,0,0,0,0],"id":33,"left_children":[1,3,5,7,9,11,13,-1,-1,-1,-1,-1,-1,-1,-1],"loss_changes":[4.673725E7,6.429173E6,2.702064E6,9.17258E5,7.485254E5,3.607155E5,8.02402E5,0E0,0E0,0E0,0E0,0E0,0E0,0E0,0E0],"parents":[2147483647,0,0,1,1,2,2,3,3,4,4,5,5,6,6],"right_children":[2,4,6,8,10,12,14,-1,-1,-1,-1,-1,-1,-1,-1],"split_conditions":[2.62E1,1.7E1,3.16E1,1.4E1,3.8E1,1.48E1,1.15E2,-5.9910903E0,-3.983269E0,-2.214145E0,3.7543947E-1,2.5531306E0,4.812722E0,6.759039E0,9.653803E0],"split_indices":[3,3,3,0,0,2,0,0,0,0,0,0,0,0,0],"split_type":[0,0,0,0,0,0,0,0,0,0,0,0,0,0,0],"sum_hessian":[1.589E3,1.028E3,5.61E2,6.71E2,3.57E2,2.11E2,3.5E2,3.2E2,3.51E2,1.2E2,2.37E2,9.7E1,1.14E2,2.45E2,1.05E2],"tree_param":{"num_deleted":"0","num_feature":"7","num_nodes":"15","size_leaf_vector":"1"}},{"base_weights":[4.643775E-1,-1.21761604E2,2.3034991E2,-1.7853906E2,-1.9253223E1,1.8300766E2,3.206629E2,-5.437193E0,-3.2677445E0,-1.5998589E0,6.9420564E-1,3.2165444E0,5.699967E0,7.4024444E0,9.426482E0],"categories":[],"categories_nodes":[],"categories_segments":[],"categories_sizes":[],"default_left":[0,0,0,0,0,0,0,0,0,0,0,0,0,0,0],"id":34,"left_children":[1,3,5,7,9,11,13,-1,-1,-1,-1,-1,-1,-1,-1],"loss_changes":[4.4661984E7,6.037277E6,2.31473E6,9.05492E5,6.792779E5,6.63225E5,1.8815E5,0E0,0E0,0E0,0E0,0E0,0E0,0E0,0E0],"parents":[2147483647,0,0,1,1,2,2,3,3,4,4,5,5,6,6],"right_children":[2,4,6,8,10,12,14,-1,-1,-1,-1,-1,-1,-1,-1],"split_conditions":[2.65E1,1.7E1,1.01E2,2.1E1,8.2E0,3E1,1.15E2,-5.437193E0,-3.2677445E0,-1.5998589E0,6.9420564E-1,3.2165444E0,5.699967E0,7.4024444E0,9.426482E0],"split_indices":[3,3,0,0,5,3,0,0,0,0,0,0,0,0,0],"split_type":[0,0,0,0,0,0,0,0,0,0,0,0,0,0,0],"sum_hessian":[1.588E3,1.037E3,5.51E2,6.67E2,3.7E2,3.63E2,1.88E2,4.64E2,2.03E2,1.95E2,1.75E2,1.18E2,2.45E2,8.1E1,1.07E2],"tree_param":{"num_deleted":"0","num_feature":"7","num_nodes":"15","size_leaf_vector":"1"}},{"base_weights":[-2.1354725E0,-1.1817307E2,2.2382863E2,-1.775139E2,-2.4769144E1,1.7126817E2,2.8606293E2,-5.6624684E0,-3.85927E0,-1.8282562E0,6.925091E-1,3.2812958E0,5.3273163E0,4.5832105E0,7.9148636E0],"categories":[],"categories_nodes":[],"categories_segments":[],"categories_sizes":[],"default_left":[0,0,0,0,0,0,0,0,0,0,0,0,0,0,0],"id":35,"left_children":[1,3,5,7,9,11,13,-1,-1,-1,-1,-1,-1,-1,-1],"loss_changes":[4.2175796E7,5.887141E6,1.748156E6,7.13346E5,9.125334E5,3.8295E5,2.3284E5,0E0,0E0,0E0,0E0,0E0,0E0,0E0,0E0],"parents":[2147483647,0,0,1,1,2,2,3,3,4,4,5,5,6,6],"right_children":[2,4,6,8,10,12,14,-1,-1,-1,-1,-1,-1,-1,-1],"split_conditions":[2.7E1,2.8E1,3.36E1,1.4E1,2.11E1,2.97E1,8E1,-5.6624684E0,-3.85927E0,-1.8282562E0,6.925091E-1,3.2812958E0,5.3273163E0,4.5832105E0,7.9148636E0],"split_indices":[3,0,3,0,3,3,0,0,0,0,0,0,0,0,0],"split_type":[0,0,0,0,0,0,0,0,0,0,0,0,0,0,0],"sum_hessian":[1.607E3,1.062E3,5.45E2,6.49E2,4.13E2,2.97E2,2.48E2,3.2E2,3.29E2,2.22E2,1.91E2,1.09E2,1.88E2,2E1,2.28E2],"tree_param":{"num_deleted":"0","num_feature":"7","num_nodes":"15","size_leaf_vector":"1"}},{"base_weights":[3.406059E0,-1.30468E2,1.9393684E2,-1.9275555E2,-6.632812E1,1.0936156E2,2.6669427E2,-6.060738E0,-4.686037E0,-2.7503154E0,-4.9011588E-1,1.7581086E0,4.172569E0,6.413592E0,8.748543E0],"categories":[],"categories_nodes":[],"categories_segments":[],"categories_sizes":[],"default_left":[0,0,0,0,0,0,0,0,0,0,0,0,0,0,0],"id":36,"left_children":[1,3,5,7,9,11,13,-1,-1,-1,-1,-1,-1,-1,-1],"loss_changes":[4.0161064E7,3.684812E6,3.976182E6,2.49666E5,7.96397E5,6.04873E5,5.10016E5,0E0,0E0,0E0,0E0,0E0,0E0,0E0,0E0],"parents":[2147483647,0,0,1,1,2,2,3,3,4,4,5,5,6,6],"right_children":[2,4,6,8,10,12,14,-1,-1,-1,-1,-1,-1,-1,-1],"split_conditions":[5.2E1,2.1E1,8E1,7E0,1.1E1,1.48E1,1.15E2,-6.060738E0,-4.686037E0,-2.7503154E0,-4.9011588E-1,1.7581086E0,4.172569E0,6.413592E0,8.748543E0],"split_indices":[0,0,0,0,2,2,0,0,0,0,0,0,0,0,0],"split_type":[0,0,0,0,0,0,0,0,0,0,0,0,0,0,0],"sum_hessian":[1.573E3,9.24E2,6.49E2,4.68E2,4.56E2,3.01E2,3.48E2,1.59E2,3.09E2,2.59E2,1.97E2,1.56E2,1.45E2,2.42E2,1.06E2],"tree_param":{"num_deleted":"0","num_feature":"7","num_nodes":"15","size_leaf_vector":"1"}},{"base_weights":[1.4217831E0,-1.1371892E2,2.1141235E2,-1.6965608E2,-2.2992357E1,1.480332E2,2.6534692E2,-5.378542E0,-3.705471E0,-1.6280688E0,7.703001E-1,2.595829E0,4.8833275E0,4.40943E0,7.4171405E0],"categories":[],"categories_nodes":[],"categories_segments":[],"categories_sizes":[],"default_left":[0,0,0,0,0,0,0,0,0,0,0,0,0,0,0],"id":37,"left_children":[1,3,5,7,9,11,13,-1,-1,-1,-1,-1,-1,-1,-1],"loss_changes":[3.7875692E7,5.131667E6,1.866626E6,5.89542E5,7.579722E5,4.3684E5,3.14886E5,0E0,0E0,0E0,0E0,0E0,0E0,0E0,0E0],"parents":[2147483647,0,0,1,1,2,2,3,3,4,4,5,5,6,6],"right_children":[2,4,6,8,10,12,14,-1,-1,-1,-1,-1,-1,-1,-1],"split_conditions":[2.65E1,2.8E1,3.26E1,1.4E1,8.3E0,1.48E1,8E1,-5.378542E0,-3.705471E0,-1.6280688E0,7.703001E-1,2.595829E0,4.8833275E0,4.40943E0,7.4171405E0],"split_indices":[3,0,3,0,5,2,0,0,0,0,0,0,0,0,0],"split_type":[0,0,0,0,0,0,0,0,0,0,0,0,0,0,0],"sum_hessian":[1.565E3,1.011E3,5.54E2,6.25E2,3.86E2,2.56E2,2.98E2,3.11E2,3.14E2,2.23E2,1.63E2,1.04E2,1.52E2,3.2E1,2.66E2],"tree_param":{"num_deleted":"0","num_feature":"7","num_nodes":"15","size_leaf_vector":"1"}},{"base_weights":[1.3421673E0,-1.23266525E2,1.8234636E2,-1.8242734E2,-6.2358902E1,1.0702237E2,2.4801033E2,-5.760269E0,-4.418288E0,-2.6245842E0,-4.1758978E-1,1.7193044E0,4.0688725E0,5.7374067E0,8.674759E0],"categories":[],"categories_nodes":[],"categories_segments":[],"categories_sizes":[],"default_left":[0,0,0,0,0,0,0,0,0,0,0,0,0,0,0],"id":38,"left_children":[1,3,5,7,9,11,13,-1,-1,-1,-1,-1,-1,-1,-1],"loss_changes":[3.5444864E7,3.345203E6,3.149132E6,2.41996E5,7.652146E5,5.6910125E5,8.2369E5,0E0,0E0,0E0,0E0,0E0,0E0,0E0,0E0],"parents":[2147483647,0,0,1,1,2,2,3,3,4,4,5,5,6,6],"right_children":[2,4,6,8,10,12,14,-1,-1,-1,-1,-1,-1,-1,-1],"split_conditions":[5.2E1,2.1E1,8E1,7E0,1.1E1,1.48E1,1.15E2,-5.760269E0,-4.418288E0,-2.6245842E0,-4.1758978E-1,1.7193044E0,4.0688725E0,5.7374067E0,8.674759E0],"split_indices":[0,0,0,0,2,2,0,0,0,0,0,0,0,0,0],"split_type":[0,0,0,0,0,0,0,0,0,0,0,0,0,0,0],"sum_hessian":[1.57E3,9.3E2,6.4E2,4.71E2,4.59E2,2.99E2,3.41E2,1.61E2,3.1E2,2.6E2,1.99E2,1.54E2,1.45E2,2.38E2,1.03E2],"tree_param":{"num_deleted":"0","num_feature":"7","num_nodes":"15","size_leaf_vector":"1"}},{"base_weights":[1.7473443E0,-1.1180815E2,1.8887836E2,-1.7101097E2,-4.1134743E1,1.442978E2,2.841156E2,-5.602455E0,-4.1282983E0,-2.1688962E0,7.753726E-2,2.3838677E0,4.840658E0,6.377281E0,8.491508E0],"categories":[],"categories_nodes":[],"categories_segments":[],"categories_sizes":[],"default_left":[0,0,0,0,0,0,0,0,0,0,0,0,0,0,0],"id":39,"left_children":[1,3,5,7,9,11,13,-1,-1,-1,-1,-1,-1,-1,-1],"loss_changes":[3.2565356E7,3.985229E6,2.42623E6,3.09564E5,7.6482206E5,7.85395E5,2.2146E5,0E0,0E0,0E0,0E0,0E0,0E0,0E0,0E0],"parents":[2147483647,0,0,1,1,2,2,3,3,4,4,5,5,6,6],"right_children":[2,4,6,8,10,12,14,-1,-1,-1,-1,-1,-1,-1,-1],"split_conditions":[2.55E1,5.7E0,1.01E2,7E0,3.8E1,3E1,1.15E2,-5.602455E0,-4.1282983E0,-2.1688962E0,7.753726E-2,2.3838677E0,4.840658E0,6.377281E0,8.491508E0],"split_indices":[3,5,0,0,0,3,0,0,0,0,0,0,0,0,0],"split_type":[0,0,0,0,0,0,0,0,0,0,0,0,0,0,0],"sum_hessian":[1.531E3,9.53E2,5.78E2,5.18E2,4.35E2,3.95E2,1.83E2,1.56E2,3.62E2,2.28E2,2.07E2,1.58E2,2.37E2,7.9E1,1.04E2],"tree_param":{"num_deleted":"0","num_feature":"7","num_nodes":"15","size_leaf_vector":"1"}},{"base_weights":[-1.9228205E-1,-1.1778428E2,1.7192389E2,-1.6056085E2,-4.3113834E1,9.88898E1,2.3856473E2,-5.0404E0,-3.585539E0,-1.9563794E0,-1.1900998E-1,6.848418E-1,3.4158928E0,5.6177607E0,8.141889E0],"categories":[],"categories_nodes":[],"categories_segments":[],"categories_sizes":[],"default_left":[0,0,0,0,0,0,0,0,0,0,0,0,0,0,0],"id":40,"left_children":[1,3,5,7,9,11,13,-1,-1,-1,-1,-1,-1,-1,-1],"loss_changes":[3.1401742E7,2.938961E6,3.047192E6,4.12968E5,3.8960906E5,6.31617E5,5.71438E5,0E0,0E0,0E0,0E0,0E0,0E0,0E0,0E0],"parents":[2147483647,0,0,1,1,2,2,3,3,4,4,5,5,6,6],"right_children":[2,4,6,8,10,12,14,-1,-1,-1,-1,-1,-1,-1,-1],"split_conditions":[5.2E1,1.57E1,8E1,4.3E0,3.8E1,2.65E1,1.15E2,-5.0404E0,-3.585539E0,-1.9563794E0,-1.1900998E-1,6.848418E-1,3.4158928E0,5.6177607E0,8.141889E0],"split_indices":[0,3,0,5,0,3,0,0,0,0,0,0,0,0,0],"split_type":[0,0,0,0,0,0,0,0,0,0,0,0,0,0,0],"sum_hessian":[1.55E3,9.21E2,6.29E2,5.85E2,3.36E2,3.01E2,3.28E2,2.85E2,3E2,1.89E2,1.47E2,8.5E1,2.16E2,2.3E2,9.8E1],"tree_param":{"num_deleted":"0","num_feature":"7","num_nodes":"15","size_leaf_vector":"1"}},{"base_weights":[-2.4463482E-1,-1.19531105E2,1.63563E2,-1.6374966E2,-5.943883E1,9.4022484E1,2.3251431E2,-5.324124E0,-3.9606247E0,-2.35007E0,-5.929574E-1,1.0175872E0,3.4081829E0,3.9596388E0,6.842154E0],"categories":[],"categories_nodes":[],"categories_segments":[],"categories_sizes":[],"default_left":[0,0,0,0,0,0,0,0,0,0,0,0,0,0,0],"id":41,"left_children":[1,3,5,7,9,11,13,-1,-1,-1,-1,-1,-1,-1,-1],"loss_changes":[3.0316542E7,2.378127E6,3.118146E6,2.65026E5,4.0166525E5,6.04849E5,6.08942E5,0E0,0E0,0E0,0E0,0E0,0E0,0E0,0E0],"parents":[2147483647,0,0,1,1,2,2,3,3,4,4,5,5,6,6],"right_children":[2,4,6,8,10,12,14,-1,-1,-1,-1,-1,-1,-1,-1],"split_conditions":[2.31E1,1.46E1,8E1,7E0,1.81E1,2.7E1,3.3E1,-5.324124E0,-3.9606247E0,-2.35007E0,-5.929574E-1,1.0175872E0,3.4081829E0,3.9596388E0,6.842154E0],"split_indices":[3,3,0,0,3,3,3,0,0,0,0,0,0,0,0],"split_type":[0,0,0,0,0,0,0,0,0,0,0,0,0,0,0],"sum_hessian":[1.55E3,8.97E2,6.53E2,5.16E2,3.81E2,3.26E2,3.27E2,1.58E2,3.58E2,2.16E2,1.65E2,1.22E2,2.04E2,7.1E1,2.56E2],"tree_param":{"num_deleted":"0","num_feature":"7","num_nodes":"15","size_leaf_vector":"1"}},{"base_weights":[8.9481694E-1,-9.967144E1,1.8775089E2,-1.4695201E2,-1.5444271E1,1.353873E2,2.5121121E2,-4.4154353E0,-2.7404196E0,-6.124699E-1,5.1417212E0,2.2676277E0,4.4765162E0,5.683257E0,7.606502E0],"categories":[],"categories_nodes":[],"categories_segments":[],"categories_sizes":[],"default_left":[0,0,0,0,0,0,0,0,0,0,0,0,0,0,0],"id":42,"left_children":[1,3,5,7,9,11,13,-1,-1,-1,-1,-1,-1,-1,-1],"loss_changes":[2.9418088E7,4.051272E6,1.794468E6,5.08481E5,5.682258E5,4.754235E5,2.70237E5,0E0,0E0,0E0,0E0,0E0,0E0,0E0,0E0],"parents":[2147483647,0,0,1,1,2,2,3,3,4,4,5,5,6,6],"right_children":[2,4,6,8,10,12,14,-1,-1,-1,-1,-1,-1,-1,-1],"split_conditions":[2.65E1,1.68E1,3.36E1,2.1E1,1.6E1,1.47E1,1.74E1,-4.4154353E0,-2.7404196E0,-6.124699E-1,5.1417212E0,2.2676277E0,4.4765162E0,5.683257E0,7.606502E0],"split_indices":[3,3,3,0,2,2,1,0,0,0,0,0,0,0,0],"split_type":[0,0,0,0,0,0,0,0,0,0,0,0,0,0,0],"sum_hessian":[1.564E3,1.017E3,5.47E2,6.51E2,3.66E2,3.01E2,2.46E2,4.63E2,1.88E2,3.54E2,1.2E1,1.17E2,1.84E2,1.15E2,1.31E2],"tree_param":{"num_deleted":"0","num_feature":"7","num_nodes":"15","size_leaf_vector":"1"}},{"base_weights":[8.4831667E-1,-1.0405528E2,1.6771759E2,-1.3883228E2,-1.6970728E1,1.01167656E2,2.2433765E2,-4.2642426E0,-2.5482001E0,-9.76757E-1,9.40932E-1,9.336044E0,2.4891164E0,5.201311E0,7.7860894E0],"categories":[],"categories_nodes":[],"categories_segments":[],"categories_sizes":[],"default_left":[0,0,0,0,0,0,0,0,0,0,0,0,0,0,0],"id":43,"left_children":[1,3,5,7,9,11,13,-1,-1,-1,-1,-1,-1,-1,-1],"loss_changes":[2.7562046E7,2.92605E6,2.272878E6,6.0396E5,2.8219416E5,5.4671775E5,6.12757E5,0E0,0E0,0E0,0E0,0E0,0E0,0E0,0E0],"parents":[2147483647,0,0,1,1,2,2,3,3,4,4,5,5,6,6],"right_children":[2,4,6,8,10,12,14,-1,-1,-1,-1,-1,-1,-1,-1],"split_conditions":[8.5E0,1.03E1,8E1,2.1E1,1.33E1,8.8E0,1.15E2,-4.2642426E0,-2.5482001E0,-9.76757E-1,9.40932E-1,9.336044E0,2.4891164E0,5.201311E0,7.7860894E0],"split_indices":[4,2,0,0,2,1,0,0,0,0,0,0,0,0,0],"split_type":[0,0,0,0,0,0,0,0,0,0,0,0,0,0,0],"sum_hessian":[1.573E3,9.66E2,6.07E2,6.9E2,2.76E2,2.8E2,3.27E2,4.69E2,2.21E2,2.01E2,7.5E1,8E0,2.72E2,2.27E2,1E2],"tree_param":{"num_deleted":"0","num_feature":"7","num_nodes":"15","size_leaf_vector":"1"}},{"base_weights":[3.0286E0,-9.947433E1,1.6836717E2,-1.3785289E2,-1.9233791E1,1.037326E2,2.191753E2,-4.270794E0,-2.6662016E0,-6.789309E-1,3.3527164E0,1.3567458E0,3.563599E0,5.192097E0,7.2416883E0],"categories":[],"categories_nodes":[],"categories_segments":[],"categories_sizes":[],"default_left":[0,0,0,0,0,0,0,0,0,0,0,0,0,0,0],"id":44,"left_children":[1,3,5,7,9,11,13,-1,-1,-1,-1,-1,-1,-1,-1],"loss_changes":[2.6294352E7,2.947394E6,1.93266E6,5.24307E5,2.7695444E5,4.03937E5,3.9038E5,0E0,0E0,0E0,0E0,0E0,0E0,0E0,0E0],"parents":[2147483647,0,0,1,1,2,2,3,3,4,4,5,5,6,6],"right_children":[2,4,6,8,10,12,14,-1,-1,-1,-1,-1,-1,-1,-1],"split_conditions":[2.55E1,1.7E1,8E1,1.34E1,7.5E0,1.43E1,1.15E2,-4.270794E0,-2.6662016E0,-6.789309E-1,3.3527164E0,1.3567458E0,3.563599E0,5.192097E0,7.2416883E0],"split_indices":[3,3,0,3,6,2,0,0,0,0,0,0,0,0,0],"split_type":[0,0,0,0,0,0,0,0,0,0,0,0,0,0,0],"sum_hessian":[1.55E3,9.57E2,5.93E2,6.47E2,3.1E2,2.62E2,3.31E2,4.12E2,2.35E2,2.98E2,1.2E1,9.4E1,1.68E2,2.24E2,1.07E2],"tree_param":{"num_deleted":"0","num_feature":"7","num_nodes":"15","size_leaf_vector":"1"}},{"base_weights":[-9.787389E-2,-9.200993E1,1.7135022E2,-1.3298442E2,-6.486158E0,1.1219099E2,2.2001228E2,-4.356215E0,-2.8941064E0,-3.6058137E-1,5.429115E0,1.9036229E0,3.7106388E0,4.8275795E0,6.6325774E0],"categories":[],"categories_nodes":[],"categories_segments":[],"categories_sizes":[],"default_left":[0,0,0,0,0,0,0,0,0,0,0,0,0,0,0],"id":45,"left_children":[1,3,5,7,9,11,13,-1,-1,-1,-1,-1,-1,-1,-1],"loss_changes":[2.4732548E7,3.579852E6,1.5582E6,4.97511E5,4.8636134E5,2.621545E5,2.95704E5,0E0,0E0,0E0,0E0,0E0,0E0,0E0,0E0],"parents":[2147483647,0,0,1,1,2,2,3,3,4,4,5,5,6,6],"right_children":[2,4,6,8,10,12,14,-1,-1,-1,-1,-1,-1,-1,-1],"split_conditions":[2.62E1,1.03E1,3.26E1,1.4E1,8E0,1.48E1,1.01E2,-4.356215E0,-2.8941064E0,-3.6058137E-1,5.429115E0,1.9036229E0,3.7106388E0,4.8275795E0,6.6325774E0],"split_indices":[3,2,3,0,6,2,0,0,0,0,0,0,0,0,0],"split_type":[0,0,0,0,0,0,0,0,0,0,0,0,0,0,0],"sum_hessian":[1.568E3,1.021E3,5.47E2,6.9E2,3.31E2,2.48E2,2.99E2,3.13E2,3.77E2,3.21E2,1E1,9.8E1,1.5E2,1.25E2,1.74E2],"tree_param":{"num_deleted":"0","num_feature":"7","num_nodes":"15","size_leaf_vector":"1"}},{"base_weights":[-1.591111E0,-1.1087054E2,1.3140083E2,-1.4812822E2,-6.441325E1,7.053165E1,1.9715886E2,-4.721842E0,-3.5622907E0,-2.4012444E0,-1.0729688E0,5.381194E-1,2.8298626E0,4.6293597E0,6.673466E0],"categories":[],"categories_nodes":[],"categories_segments":[],"categories_sizes":[],"default_left":[0,0,0,0,0,0,0,0,0,0,0,0,0,0,0],"id":46,"left_children":[1,3,5,7,9,11,13,-1,-1,-1,-1,-1,-1,-1,-1],"loss_changes":[2.2868276E7,1.487831E6,2.830352E6,1.86168E5,2.3442962E5,6.5367025E5,3.982E5,0E0,0E0,0E0,0E0,0E0,0E0,0E0,0E0],"parents":[2147483647,0,0,1,1,2,2,3,3,4,4,5,5,6,6],"right_children":[2,4,6,8,10,12,14,-1,-1,-1,-1,-1,-1,-1,-1],"split_conditions":[2.2E1,2.1E1,8E1,7E0,1.7E1,2.65E1,1.15E2,-4.721842E0,-3.5622907E0,-2.4012444E0,-1.0729688E0,5.381194E-1,2.8298626E0,4.6293597E0,6.673466E0],"split_indices":[3,0,0,0,3,3,0,0,0,0,0,0,0,0,0],"split_type":[0,0,0,0,0,0,0,0,0,0,0,0,0,0,0],"sum_hessian":[1.572E3,8.63E2,7.09E2,4.78E2,3.85E2,3.69E2,3.4E2,1.64E2,3.14E2,1.88E2,1.97E2,1.52E2,2.17E2,2.34E2,1.06E2],"tree_param":{"num_deleted":"0","num_feature":"7","num_nodes":"15","size_leaf_vector":"1"}},{"base_weights":[-8.186818E-2,-9.7642365E1,1.4558167E2,-1.3903406E2,-4.5695633E1,5.6980442E1,1.8282133E2,-4.5901947E0,-3.3394861E0,-2.04933E0,-3.108724E-1,1.0188192E0,3.3945487E0,4.3142986E0,6.7019825E0],"categories":[],"categories_nodes":[],"categories_segments":[],"categories_sizes":[],"default_left":[0,0,0,0,0,0,0,0,0,0,0,0,0,0,0],"id":47,"left_children":[1,3,5,7,9,11,13,-1,-1,-1,-1,-1,-1,-1,-1],"loss_changes":[2.2346932E7,2.020102E6,2.073262E6,2.26844E5,4.393557E5,2.4441769E5,6.19559E5,0E0,0E0,0E0,0E0,0E0,0E0,0E0,0E0],"parents":[2147483647,0,0,1,1,2,2,3,3,4,4,5,5,6,6],"right_children":[2,4,6,8,10,12,14,-1,-1,-1,-1,-1,-1,-1,-1],"split_conditions":[2.42E1,1.46E1,2.92E1,7E0,1.1E1,1.15E1,1.15E2,-4.5901947E0,-3.3394861E0,-2.04933E0,-3.108724E-1,1.0188192E0,3.3945487E0,4.3142986E0,6.7019825E0],"split_indices":[3,3,3,0,2,5,0,0,0,0,0,0,0,0,0],"split_type":[0,0,0,0,0,0,0,0,0,0,0,0,0,0,0],"sum_hessian":[1.571E3,9.41E2,6.3E2,5.23E2,4.18E2,1.87E2,4.43E2,1.58E2,3.65E2,2.19E2,1.99E2,1.48E2,3.9E1,3.37E2,1.06E2],"tree_param":{"num_deleted":"0","num_feature":"7","num_nodes":"15","size_leaf_vector":"1"}},{"base_weights":[3.102626E0,-8.285299E1,1.6202376E2,-1.26459816E2,-1.4908231E1,1.2607609E2,2.2880078E2,-4.0268536E0,-2.7212636E0,-5.6959856E-1,4.762763E0,2.3192408E0,4.080343E0,5.107909E0,6.91034E0],"categories":[],"categories_nodes":[],"categories_segments":[],"categories_sizes":[],"default_left":[0,0,0,0,0,0,0,0,0,0,0,0,0,0,0],"id":48,"left_children":[1,3,5,7,9,11,13,-1,-1,-1,-1,-1,-1,-1,-1],"loss_changes":[2.1316644E7,2.9991995E6,1.293048E6,3.54753E5,4.8928012E5,3.612215E5,1.75089E5,0E0,0E0,0E0,0E0,0E0,0E0,0E0,0E0],"parents":[2147483647,0,0,1,1,2,2,3,3,4,4,5,5,6,6],"right_children":[2,4,6,8,10,12,14,-1,-1,-1,-1,-1,-1,-1,-1],"split_conditions":[2.65E1,2.8E1,1.01E2,1.4E1,7.6E0,3.03E1,1.15E2,-4.0268536E0,-2.7212636E0,-5.6959856E-1,4.762763E0,2.3192408E0,4.080343E0,5.107909E0,6.91034E0],"split_indices":[3,0,0,0,6,3,0,0,0,0,0,0,0,0,0],"split_type":[0,0,0,0,0,0,0,0,0,0,0,0,0,0,0],"sum_hessian":[1.559E3,1.012E3,5.47E2,6.16E2,3.96E2,3.57E2,1.9E2,3.12E2,3.04E2,3.84E2,1.2E1,1.44E2,2.13E2,8.5E1,1.05E2],"tree_param":{"num_deleted":"0","num_feature":"7","num_nodes":"15","size_leaf_vector":"1"}},{"base_weights":[-1.8750463E-1,-9.036897E1,1.4182112E2,-1.2395528E2,-2.5415276E1,8.529574E1,1.897935E2,-3.9338698E0,-2.6836042E0,-8.6795324E-1,3.0821671E0,1.0507251E0,3.081466E0,4.6699204E0,5.9238734E0],"categories":[],"categories_nodes":[],"categories_segments":[],"categories_sizes":[],"default_left":[0,0,0,0,0,0,0,0,0,0,0,0,0,0,0],"id":49,"left_children":[1,3,5,7,9,11,13,-1,-1,-1,-1,-1,-1,-1,-1],"loss_changes":[2.013841E7,2.0957175E6,1.643896E6,3.34072E5,3.258922E5,3.8289338E5,1.30489E5,0E0,0E0,0E0,0E0,0E0,0E0,0E0,0E0],"parents":[2147483647,0,0,1,1,2,2,3,3,4,4,5,5,6,6],"right_children":[2,4,6,8,10,12,14,-1,-1,-1,-1,-1,-1,-1,-1],"split_conditions":[8.5E0,2.8E1,8E1,1.4E1,1.57E1,1.43E1,1.15E2,-3.9338698E0,-2.6836042E0,-8.6795324E-1,3.0821671E0,1.0507251E0,3.081466E0,4.6699204E0,5.9238734E0],"split_indices":[4,0,0,0,1,2,0,0,0,0,0,0,0,0,0],"split_type":[0,0,0,0,0,0,0,0,0,0,0,0,0,0,0],"sum_hessian":[1.571E3,9.61E2,6.1E2,6.33E2,3.28E2,2.81E2,3.29E2,3.2E2,3.13E2,3.13E2,1.5E1,1.11E2,1.7E2,2.24E2,1.05E2],"tree_param":{"num_deleted":"0","num_feature":"7","num_nodes":"15","size_leaf_vector":"1"}},{"base_weights":[-1.0969015E0,-9.281052E1,1.2620471E2,-1.3285745E2,-5.036008E1,5.5085567E1,1.6493666E2,-4.2575274E0,-3.194311E0,-1.9675035E0,-4.0727898E-1,3.6255518E-1,2.1698902E0,3.4820745E0,5.192465E0],"categories":[],"categories_nodes":[],"categories_segments":[],"categories_sizes":[],"default_left":[0,0,0,0,0,0,0,0,0,0,0,0,0,0,0],"id":50,"left_children":[1,3,5,7,9,11,13,-1,-1,-1,-1,-1,-1,-1,-1],"loss_changes":[1.839455E7,1.551712E6,1.810456E6,1.526345E5,3.6121938E5,2.510775E5,4.12314E5,0E0,0E0,0E0,0E0,0E0,0E0,0E0,0E0],"parents":[2147483647,0,0,1,1,2,2,3,3,4,4,5,5,6,6],"right_children":[2,4,6,8,10,12,14,-1,-1,-1,-1,-1,-1,-1,-1],"split_conditions":[2.31E1,2.1E1,3E1,7E0,1.81E1,9E0,1.66E1,-4.2575274E0,-3.194311E0,-1.9675035E0,-4.0727898E-1,3.6255518E-1,2.1698902E0,3.4820745E0,5.192465E0],"split_indices":[3,0,3,0,3,4,1,0,0,0,0,0,0,0,0],"split_type":[0,0,0,0,0,0,0,0,0,0,0,0,0,0,0],"sum_hessian":[1.574E3,9.15E2,6.59E2,4.7E2,4.45E2,2.33E2,4.26E2,1.58E2,3.12E2,2.68E2,1.77E2,9E1,1.43E2,1.95E2,2.31E2],"tree_param":{"num_deleted":"0","num_feature":"7","num_nodes":"15","size_leaf_vector":"1"}},{"base_weights":[9.430404E-1,-9.517784E1,1.2564227E2,-1.2976566E2,-5.420561E1,7.466307E1,1.7940852E2,-4.143022E0,-3.1151595E0,-2.1368191E0,-7.121485E-1,1.5095843E0,3.8953912E0,4.291738E0,5.885178E0],"categories":[],"categories_nodes":[],"categories_segments":[],"categories_sizes":[],"default_left":[0,0,0,0,0,0,0,0,0,0,0,0,0,0,0],"id":51,"left_children":[1,3,5,7,9,11,13,-1,-1,-1,-1,-1,-1,-1,-1],"loss_changes":[1.8800448E7,1.2499005E6,1.861254E6,1.472145E5,2.8574412E5,4.4934125E5,2.2973E5,0E0,0E0,0E0,0E0,0E0,0E0,0E0,0E0],"parents":[2147483647,0,0,1,1,2,2,3,3,4,4,5,5,6,6],"right_children":[2,4,6,8,10,12,14,-1,-1,-1,-1,-1,-1,-1,-1],"split_conditions":[7.6E0,2.1E1,8E1,7E0,1.02E1,1.58E1,1.15E2,-4.143022E0,-3.1151595E0,-2.1368191E0,-7.121485E-1,1.5095843E0,3.8953912E0,4.291738E0,5.885178E0],"split_indices":[4,0,0,0,2,2,0,0,0,0,0,0,0,0,0],"split_type":[0,0,0,0,0,0,0,0,0,0,0,0,0,0,0],"sum_hessian":[1.567E3,8.85E2,6.82E2,4.79E2,4.06E2,3.51E2,3.31E2,1.65E2,3.14E2,2.1E2,1.96E2,2.8E2,7.1E1,2.27E2,1.04E2],"tree_param":{"num_deleted":"0","num_feature":"7","num_nodes":"15","size_leaf_vector":"1"}},{"base_weights":[-3.4763068E-1,-7.740473E1,1.450474E2,-1.10791626E2,-7.838356E0,1.1339749E2,2.0542924E2,-3.4660757E0,-2.1547089E0,-1.135925E0,4.5197457E-1,2.1838734E0,3.940421E0,6.090838E0,4.5148416E0],"categories":[],"categories_nodes":[],"categories_segments":[],"categories_sizes":[],"default_left":[0,0,0,0,0,0,0,0,0,0,0,0,0,0,0],"id":52,"left_children":[1,3,5,7,9,11,13,-1,-1,-1,-1,-1,-1,-1,-1],"loss_changes":[1.7651566E7,2.391038E6,1.02535E6,3.85364E5,2.866257E5,3.77513E5,1.224165E5,0E0,0E0,0E0,0E0,0E0,0E0,0E0,0E0],"parents":[2147483647,0,0,1,1,2,2,3,3,4,4,5,5,6,6],"right_children":[2,4,6,8,10,12,14,-1,-1,-1,-1,-1,-1,-1,-1],"split_conditions":[2.65E1,1.03E1,1.01E2,1.34E1,2.02E1,1.09E1,8.3E0,-3.4660757E0,-2.1547089E0,-1.135925E0,4.5197457E-1,2.1838734E0,3.940421E0,6.090838E0,4.5148416E0],"split_indices":[3,2,0,3,3,4,6,0,0,0,0,0,0,0,0],"split_type":[0,0,0,0,0,0,0,0,0,0,0,0,0,0,0],"sum_hessian":[1.574E3,1.029E3,5.45E2,6.95E2,3.34E2,3.59E2,1.86E2,4.29E2,2.66E2,1.39E2,1.95E2,1.86E2,1.73E2,1.14E2,7.2E1],"tree_param":{"num_deleted":"0","num_feature":"7","num_nodes":"15","size_leaf_vector":"1"}},{"base_weights":[9.924039E-1,-7.447673E1,1.3748479E2,-1.0643147E2,-8.136352E0,9.189405E1,1.7456256E2,-3.3625355E0,-1.9997888E0,-4.163745E-1,3.2762308E0,1.5821525E0,3.0918715E0,4.985542E0,3.0714345E0],"categories":[],"categories_nodes":[],"categories_segments":[],"categories_sizes":[],"default_left":[0,0,0,0,0,0,0,0,0,0,0,0,0,0,0],"id":53,"left_children":[1,3,5,7,9,11,13,-1,-1,-1,-1,-1,-1,-1,-1],"loss_changes":[1.6136514E7,2.137776E6,9.30682E5,4.0642E5,3.193138E5,1.894495E5,1.96897E5,0E0,0E0,0E0,0E0,0E0,0E0,0E0,0E0],"parents":[2147483647,0,0,1,1,2,2,3,3,4,4,5,5,6,6],"right_children":[2,4,6,8,10,12,14,-1,-1,-1,-1,-1,-1,-1,-1],"split_conditions":[2.65E1,1.03E1,3.24E1,1.35E1,7.5E0,1.48E1,2.01E1,-3.3625355E0,-1.9997888E0,-4.163745E-1,3.2762308E0,1.5821525E0,3.0918715E0,4.985542E0,3.0714345E0],"split_indices":[3,2,3,3,6,2,1,0,0,0,0,0,0,0,0],"split_type":[0,0,0,0,0,0,0,0,0,0,0,0,0,0,0],"sum_hessian":[1.565E3,1.008E3,5.57E2,6.8E2,3.28E2,2.51E2,3.06E2,4.23E2,2.57E2,3.11E2,1.7E1,1.06E2,1.45E2,2.55E2,5.1E1],"tree_param":{"num_deleted":"0","num_feature":"7","num_nodes":"15","size_leaf_vector":"1"}},{"base_weights":[-1.5250992E0,-8.069098E1,1.1858004E2,-1.0468237E2,-1.5331619E1,4.1006905E1,1.452241E2,-3.4480362E0,-2.2435515E0,-5.4564935E-1,3.4156659E0,5.606441E-1,3.2515159E0,3.2319856E0,4.8352423E0],"categories":[],"categories_nodes":[],"categories_segments":[],"categories_sizes":[],"default_left":[0,0,0,0,0,0,0,0,0,0,0,0,0,0,0],"id":54,"left_children":[1,3,5,7,9,11,13,-1,-1,-1,-1,-1,-1,-1,-1],"loss_changes":[1.4856731E7,1.475498E6,1.278491E6,3.384165E5,1.8478542E5,2.5589106E5,3.83809E5,0E0,0E0,0E0,0E0,0E0,0E0,0E0,0E0],"parents":[2147483647,0,0,1,1,2,2,3,3,4,4,5,5,6,6],"right_children":[2,4,6,8,10,12,14,-1,-1,-1,-1,-1,-1,-1,-1],"split_conditions":[2.42E1,1.03E1,2.9E1,1.4E1,9.9E0,1.15E1,1.01E2,-3.4480362E0,-2.2435515E0,-5.4564935E-1,3.4156659E0,5.606441E-1,3.2515159E0,3.2319856E0,4.8352423E0],"split_indices":[3,2,3,0,4,5,0,0,0,0,0,0,0,0,0],"split_type":[0,0,0,0,0,0,0,0,0,0,0,0,0,0,0],"sum_hessian":[1.561E3,9.41E2,6.2E2,6.88E2,2.53E2,1.59E2,4.61E2,3.18E2,3.7E2,2.45E2,8E0,1.28E2,3.1E1,2.74E2,1.87E2],"tree_param":{"num_deleted":"0","num_feature":"7","num_nodes":"15","size_leaf_vector":"1"}},{"base_weights":[-1.8266691E0,-7.571597E1,1.2236651E2,-1.026071E2,-1.6517954E1,7.166179E1,1.6472272E2,-3.1944304E0,-1.9542795E0,-8.210036E-1,7.957372E-1,-8.056827E-1,2.1322966E0,3.8184536E0,5.624122E0],"categories":[],"categories_nodes":[],"categories_segments":[],"categories_sizes":[],"default_left":[0,0,0,0,0,0,0,0,0,0,0,0,0,0,0],"id":55,"left_children":[1,3,5,7,9,11,13,-1,-1,-1,-1,-1,-1,-1,-1],"loss_changes":[1.4237556E7,1.54723E6,1.234021E6,3.238485E5,1.9989125E5,2.1622362E5,2.92918E5,0E0,0E0,0E0,0E0,0E0,0E0,0E0,0E0],"parents":[2147483647,0,0,1,1,2,2,3,3,4,4,5,5,6,6],"right_children":[2,4,6,8,10,12,14,-1,-1,-1,-1,-1,-1,-1,-1],"split_conditions":[8.5E0,1.7E1,8E1,1.34E1,1.33E1,1.23E1,1.15E2,-3.1944304E0,-1.9542795E0,-8.210036E-1,7.957372E-1,-8.056827E-1,2.1322966E0,3.8184536E0,5.624122E0],"split_indices":[4,3,0,3,2,2,0,0,0,0,0,0,0,0,0],"split_type":[0,0,0,0,0,0,0,0,0,0,0,0,0,0,0],"sum_hessian":[1.55E3,9.72E2,5.78E2,6.68E2,3.04E2,2.64E2,3.14E2,4.26E2,2.42E2,2.33E2,7.1E1,1.9E1,2.45E2,2.13E2,1.01E2],"tree_param":{"num_deleted":"0","num_feature":"7","num_nodes":"15","size_leaf_vector":"1"}},{"base_weights":[7.229908E-1,-6.68136E1,1.3012198E2,-9.447589E1,1.8886883E0,1.01441284E2,1.8417702E2,-3.0144315E0,-1.7042309E0,-1.23675376E-1,3.3522856E0,1.850782E0,3.5562024E0,3.2915516E0,5.2363243E0],"categories":[],"categories_nodes":[],"categories_segments":[],"categories_sizes":[],"default_left":[0,0,0,0,0,0,0,0,0,0,0,0,0,0,0],"id":56,"left_children":[1,3,5,7,9,11,13,-1,-1,-1,-1,-1,-1,-1,-1],"loss_changes":[1.357635E7,1.9400565E6,8.11804E5,4.004435E5,2.361083E5,3.4754825E5,1.095995E5,0E0,0E0,0E0,0E0,0E0,0E0,0E0,0E0],"parents":[2147483647,0,0,1,1,2,2,3,3,4,4,5,5,6,6],"right_children":[2,4,6,8,10,12,14,-1,-1,-1,-1,-1,-1,-1,-1],"split_conditions":[2.7E1,7.1E0,1.01E2,2.1E1,1.6E1,1.09E1,1.66E1,-3.0144315E0,-1.7042309E0,-1.23675376E-1,3.3522856E0,1.850782E0,3.5562024E0,3.2915516E0,5.2363243E0],"split_indices":[3,5,0,0,2,4,1,0,0,0,0,0,0,0,0],"split_type":[0,0,0,0,0,0,0,0,0,0,0,0,0,0,0],"sum_hessian":[1.552E3,1.02E3,5.32E2,7.27E2,2.93E2,3.49E2,1.83E2,4.57E2,2.7E2,2.79E2,1.4E1,1.73E2,1.76E2,3E1,1.53E2],"tree_param":{"num_deleted":"0","num_feature":"7","num_nodes":"15","size_leaf_vector":"1"}},{"base_weights":[2.321371E0,-6.600934E1,1.2972212E2,-9.341274E1,4.123914E0,9.2107346E1,1.6065466E2,-3.0267584E0,-1.765292E0,-1.1373558E-1,3.0203466E0,1.8615098E0,3.4315767E0,3.8449786E0,5.2415905E0],"categories":[],"categories_nodes":[],"categories_segments":[],"categories_sizes":[],"default_left":[0,0,0,0,0,0,0,0,0,0,0,0,0,0,0],"id":57,"left_children":[1,3,5,7,9,11,13,-1,-1,-1,-1,-1,-1,-1,-1],"loss_changes":[1.3758841E7,1.9774585E6,6.30771E5,3.931795E5,2.6392797E5,1.9740625E5,1.594965E5,0E0,0E0,0E0,0E0,0E0,0E0,0E0,0E0],"parents":[2147483647,0,0,1,1,2,2,3,3,4,4,5,5,6,6],"right_children":[2,4,6,8,10,12,14,-1,-1,-1,-1,-1,-1,-1,-1],"split_conditions":[2.7E1,1.81E1,3.26E1,1.34E1,7.2E0,1.2E1,1.15E2,-3.0267584E0,-1.765292E0,-1.1373558E-1,3.0203466E0,1.8615098E0,3.4315767E0,3.8449786E0,5.2415905E0],"split_indices":[3,3,3,3,6,5,0,0,0,0,0,0,0,0,0],"split_type":[0,0,0,0,0,0,0,0,0,0,0,0,0,0,0],"sum_hessian":[1.579E3,1.028E3,5.51E2,7.39E2,2.89E2,2.5E2,3.01E2,4.3E2,3.09E2,2.69E2,2E1,1.55E2,9.5E1,2.05E2,9.6E1],"tree_param":{"num_deleted":"0","num_feature":"7","num_nodes":"15","size_leaf_vector":"1"}},{"base_weights":[-1.9246113E-1,-8.029627E1,9.418437E1,-1.0694298E2,-4.764983E1,4.905822E1,1.4361674E2,-3.5139606E0,-2.555042E0,-1.6437984E0,-5.60855E-1,3.221143E-1,2.1049945E0,2.4752858E0,4.2142606E0],"categories":[],"categories_nodes":[],"categories_segments":[],"categories_sizes":[],"default_left":[0,0,0,0,0,0,0,0,0,0,0,0,0,0,0],"id":58,"left_children":[1,3,5,7,9,11,13,-1,-1,-1,-1,-1,-1,-1,-1],"loss_changes":[1.1736883E7,7.26648E5,1.5845875E6,1.19803E5,1.3790694E5,4.081598E5,2.28048E5,0E0,0E0,0E0,0E0,0E0,0E0,0E0,0E0],"parents":[2147483647,0,0,1,1,2,2,3,3,4,4,5,5,6,6],"right_children":[2,4,6,8,10,12,14,-1,-1,-1,-1,-1,-1,-1,-1],"split_conditions":[2.2E1,2.1E1,8E1,7E0,1.1E1,1.41E1,3.3E1,-3.5139606E0,-2.555042E0,-1.6437984E0,-5.60855E-1,3.221143E-1,2.1049945E0,2.4752858E0,4.2142606E0],"split_indices":[3,0,0,0,2,2,3,0,0,0,0,0,0,0,0],"split_type":[0,0,0,0,0,0,0,0,0,0,0,0,0,0,0],"sum_hessian":[1.551E3,8.39E2,7.12E2,4.61E2,3.78E2,3.73E2,3.39E2,1.46E2,3.15E2,2.49E2,1.29E2,1.66E2,2.07E2,7.3E1,2.66E2],"tree_param":{"num_deleted":"0","num_feature":"7","num_nodes":"15","size_leaf_vector":"1"}},{"base_weights":[1.107967E0,-7.3614845E1,1.044408E2,-1.04849236E2,-3.9170418E1,5.723651E1,1.4706114E2,-3.419821E0,-2.4718442E0,-1.2644765E0,7.2156465E-1,1.1201088E0,2.8698912E0,3.5924206E0,5.5879517E0],"categories":[],"categories_nodes":[],"categories_segments":[],"categories_sizes":[],"default_left":[0,0,0,0,0,0,0,0,0,0,0,0,0,0,0],"id":59,"left_children":[1,3,5,7,9,11,13,-1,-1,-1,-1,-1,-1,-1,-1],"loss_changes":[1.215727E7,9.7994E5,1.3229615E6,1.283455E5,2.3275988E5,2.3877262E5,2.5474E5,0E0,0E0,0E0,0E0,0E0,0E0,0E0,0E0],"parents":[2147483647,0,0,1,1,2,2,3,3,4,4,5,5,6,6],"right_children":[2,4,6,8,10,12,14,-1,-1,-1,-1,-1,-1,-1,-1],"split_conditions":[2.31E1,2.1E1,3.16E1,7E0,8.6E0,1.2E1,3.9E1,-3.419821E0,-2.4718442E0,-1.2644765E0,7.2156465E-1,1.1201088E0,2.8698912E0,3.5924206E0,5.5879517E0],"split_indices":[3,0,3,0,5,5,3,0,0,0,0,0,0,0,0],"split_type":[0,0,0,0,0,0,0,0,0,0,0,0,0,0,0],"sum_hessian":[1.573E3,9.13E2,6.6E2,4.78E2,4.35E2,3.14E2,3.46E2,1.67E2,3.11E2,3.88E2,4.7E1,2.41E2,7.3E1,2.88E2,5.8E1],"tree_param":{"num_deleted":"0","num_feature":"7","num_nodes":"15","size_leaf_vector":"1"}},{"base_weights":[-1.1453438E0,-6.1420074E1,1.1479391E2,-8.968772E1,-4.651149E0,8.859404E1,1.6439343E2,-3.0548353E0,-1.9618762E0,-2.5917494E-1,4.5871077E0,2.5110018E0,-9.824398E-1,3.8969688E0,5.410916E0],"categories":[],"categories_nodes":[],"categories_segments":[],"categories_sizes":[],"default_left":[0,0,0,0,0,0,0,0,0,0,0,0,0,0,0],"id":60,"left_children":[1,3,5,7,9,11,13,-1,-1,-1,-1,-1,-1,-1,-1],"loss_changes":[1.1149786E7,1.6842355E6,6.981775E5,2.74381E5,3.1053234E5,2.3488525E5,1.1122E5,0E0,0E0,0E0,0E0,0E0,0E0,0E0,0E0],"parents":[2147483647,0,0,1,1,2,2,3,3,4,4,5,5,6,6],"right_children":[2,4,6,8,10,12,14,-1,-1,-1,-1,-1,-1,-1,-1],"split_conditions":[2.7E1,1.71E1,1.01E2,4.2E0,7.6E0,2.06E1,3.8E1,-3.0548353E0,-1.9618762E0,-2.5917494E-1,4.5871077E0,2.5110018E0,-9.824398E-1,3.8969688E0,5.410916E0],"split_indices":[3,3,0,5,6,1,3,0,0,0,0,0,0,0,0],"split_type":[0,0,0,0,0,0,0,0,0,0,0,0,0,0,0],"sum_hessian":[1.594E3,1.049E3,5.45E2,7E2,3.49E2,3.58E2,1.87E2,2.8E2,4.2E2,3.4E2,9E0,3.44E2,1.4E1,1.27E2,6E1],"tree_param":{"num_deleted":"0","num_feature":"7","num_nodes":"15","size_leaf_vector":"1"}},{"base_weights":[-1.4299719E0,-6.99737E1,9.4584465E1,-9.6285995E1,-3.3319412E1,3.578413E1,1.2648691E2,-3.1458445E0,-2.2685022E0,-1.3682563E0,-3.0899525E-1,5.52257E-1,2.805698E0,2.8961847E0,4.402E0],"categories":[],"categories_nodes":[],"categories_segments":[],"categories_sizes":[],"default_left":[0,0,0,0,0,0,0,0,0,0,0,0,0,0,0],"id":61,"left_children":[1,3,5,7,9,11,13,-1,-1,-1,-1,-1,-1,-1,-1],"loss_changes":[1.0408232E7,8.87516E5,1.2322985E6,1.241025E5,1.492571E5,2.4179744E5,2.830935E5,0E0,0E0,0E0,0E0,0E0,0E0,0E0,0E0],"parents":[2147483647,0,0,1,1,2,2,3,3,4,4,5,5,6,6],"right_children":[2,4,6,8,10,12,14,-1,-1,-1,-1,-1,-1,-1,-1],"split_conditions":[2.31E1,5.6E0,3E1,9.8E0,1.1E1,1.19E1,3.58E1,-3.1458445E0,-2.2685022E0,-1.3682563E0,-3.0899525E-1,5.52257E-1,2.805698E0,2.8961847E0,4.402E0],"split_indices":[3,5,3,3,2,5,3,0,0,0,0,0,0,0,0],"split_type":[0,0,0,0,0,0,0,0,0,0,0,0,0,0,0],"sum_hessian":[1.58E3,9.22E2,6.58E2,5.36E2,3.86E2,2.32E2,4.26E2,1.87E2,3.49E2,2.12E2,1.74E2,1.91E2,4.1E1,2.89E2,1.37E2],"tree_param":{"num_deleted":"0","num_feature":"7","num_nodes":"15","size_leaf_vector":"1"}},{"base_weights":[7.64411E-3,-6.710067E1,9.16845E1,-9.253026E1,-3.1786722E1,5.2149796E1,1.281512E2,-3.1654112E0,-2.1928148E0,-1.1249653E0,2.4377272E-1,7.6019764E-1,2.1061883E0,1.6224655E0,3.665427E0],"categories":[],"categories_nodes":[],"categories_segments":[],"categories_sizes":[],"default_left":[0,0,0,0,0,0,0,0,0,0,0,0,0,0,0],"id":62,"left_children":[1,3,5,7,9,11,13,-1,-1,-1,-1,-1,-1,-1,-1],"loss_changes":[9.662215E6,8.1204275E5,9.51862E5,1.366505E5,1.594089E5,1.9963144E5,1.967865E5,0E0,0E0,0E0,0E0,0E0,0E0,0E0,0E0],"parents":[2147483647,0,0,1,1,2,2,3,3,4,4,5,5,6,6],"right_children":[2,4,6,8,10,12,14,-1,-1,-1,-1,-1,-1,-1,-1],"split_conditions":[2.31E1,5.6E0,3.16E1,7E0,8.1E0,1.48E1,1.4E1,-3.1654112E0,-2.1928148E0,-1.1249653E0,2.4377272E-1,7.6019764E-1,2.1061883E0,1.6224655E0,3.665427E0],"split_indices":[3,5,3,0,5,2,1,0,0,0,0,0,0,0,0],"split_type":[0,0,0,0,0,0,0,0,0,0,0,0,0,0,0],"sum_hessian":[1.569E3,9.06E2,6.63E2,5.26E2,3.8E2,3.19E2,3.44E2,1.52E2,3.74E2,3.04E2,7.6E1,1.69E2,1.5E2,4E1,3.04E2],"tree_param":{"num_deleted":"0","num_feature":"7","num_nodes":"15","size_leaf_vector":"1"}},{"base_weights":[1.8973899E-1,-6.1138893E1,9.5960594E1,-8.9648796E1,-2.14588E1,6.686772E1,1.4015688E2,-3.0761704E0,-2.1284332E0,-7.14166E-1,2.4565928E0,4.7776908E-1,2.224336E0,4.1519494E0,2.566882E0],"categories":[],"categories_nodes":[],"categories_segments":[],"categories_sizes":[],"default_left":[0,0,0,0,0,0,0,0,0,0,0,0,0,0,0],"id":63,"left_children":[1,3,5,7,9,11,13,-1,-1,-1,-1,-1,-1,-1,-1],"loss_changes":[9.189138E6,1.0774892E6,7.782E5,1.353775E5,2.3751139E5,2.9236388E5,1.481275E5,0E0,0E0,0E0,0E0,0E0,0E0,0E0,0E0],"parents":[2147483647,0,0,1,1,2,2,3,3,4,4,5,5,6,6],"right_children":[2,4,6,8,10,12,14,-1,-1,-1,-1,-1,-1,-1,-1],"split_conditions":[8.5E0,1.54E1,1.68E1,7E0,1.61E1,2.7E1,2.01E1,-3.0761704E0,-2.1284332E0,-7.14166E-1,2.4565928E0,4.7776908E-1,2.224336E0,4.1519494E0,2.566882E0],"split_indices":[4,3,1,0,1,3,1,0,0,0,0,0,0,0,0],"split_type":[0,0,0,0,0,0,0,0,0,0,0,0,0,0,0],"sum_hessian":[1.563E3,9.53E2,6.1E2,5.54E2,3.99E2,3.69E2,2.41E2,1.57E2,3.97E2,3.82E2,1.7E1,9.2E1,2.77E2,1.79E2,6.2E1],"tree_param":{"num_deleted":"0","num_feature":"7","num_nodes":"15","size_leaf_vector":"1"}},{"base_weights":[2.5824761E0,-5.5629456E1,1.12678154E2,-7.8461006E1,2.8934164E0,8.988863E1,1.584494E2,-2.7181087E0,-1.6860229E0,-6.3080944E-2,2.6819232E0,2.5179043E0,-1.3902314E0,2.7296312E0,4.4990788E0],"categories":[],"categories_nodes":[],"categories_segments":[],"categories_sizes":[],"default_left":[0,0,0,0,0,0,0,0,0,0,0,0,0,0,0],"id":64,"left_children":[1,3,5,7,9,11,13,-1,-1,-1,-1,-1,-1,-1,-1],"loss_changes":[1.002025E7,1.3667555E6,5.53276E5,2.57911E5,1.4708177E5,2.1620025E5,8.3513E4,0E0,0E0,0E0,0E0,0E0,0E0,0E0,0E0],"parents":[2147483647,0,0,1,1,2,2,3,3,4,4,5,5,6,6],"right_children":[2,4,6,8,10,12,14,-1,-1,-1,-1,-1,-1,-1,-1],"split_conditions":[2.65E1,1.1E1,1.01E2,4.3E0,1.64E1,2.12E1,1.61E1,-2.7181087E0,-1.6860229E0,-6.3080944E-2,2.6819232E0,2.5179043E0,-1.3902314E0,2.7296312E0,4.4990788E0],"split_indices":[3,2,0,5,1,1,1,0,0,0,0,0,0,0,0],"split_type":[0,0,0,0,0,0,0,0,0,0,0,0,0,0,0],"sum_hessian":[1.562E3,1.022E3,5.4E2,7.35E2,2.87E2,3.62E2,1.78E2,2.94E2,4.41E2,2.73E2,1.4E1,3.52E2,1E1,2.7E1,1.51E2],"tree_param":{"num_deleted":"0","num_feature":"7","num_nodes":"15","size_leaf_vector":"1"}},{"base_weights":[2.2850504E0,-5.9629272E1,9.313364E1,-8.719576E1,-2.5240313E1,5.3192425E1,1.2572104E2,-2.9316425E0,-2.064451E0,-1.2071452E0,6.364509E-2,5.875002E-1,2.2540865E0,2.9238255E0,4.2985754E0],"categories":[],"categories_nodes":[],"categories_segments":[],"categories_sizes":[],"default_left":[0,0,0,0,0,0,0,0,0,0,0,0,0,0,0],"id":65,"left_children":[1,3,5,7,9,11,13,-1,-1,-1,-1,-1,-1,-1,-1],"loss_changes":[8.878795E6,8.8824375E5,8.276165E5,1.10844E5,2.294754E5,2.7815044E5,1.89188E5,0E0,0E0,0E0,0E0,0E0,0E0,0E0,0E0],"parents":[2147483647,0,0,1,1,2,2,3,3,4,4,5,5,6,6],"right_children":[2,4,6,8,10,12,14,-1,-1,-1,-1,-1,-1,-1,-1],"split_conditions":[2.42E1,1.46E1,3.16E1,7E0,1.89E1,1.48E1,1.15E2,-2.9316425E0,-2.064451E0,-1.2071452E0,6.364509E-2,5.875002E-1,2.2540865E0,2.9238255E0,4.2985754E0],"split_indices":[3,3,3,0,3,2,0,0,0,0,0,0,0,0,0],"split_type":[0,0,0,0,0,0,0,0,0,0,0,0,0,0,0],"sum_hessian":[1.577E3,9.38E2,6.39E2,5.2E2,4.18E2,2.88E2,3.51E2,1.6E2,3.6E2,2.43E2,1.75E2,1.44E2,1.44E2,2.4E2,1.11E2],"tree_param":{"num_deleted":"0","num_feature":"7","num_nodes":"15","size_leaf_vector":"1"}},{"base_weights":[8.3305585E-1,-5.6679955E1,9.225043E1,-7.642246E1,-9.303515E0,6.506993E1,1.3215312E2,-2.4959028E0,-1.6304332E0,-4.190179E-1,2.7141082E0,5.8608896E-1,2.6116383E0,4.8178825E0,3.157354E0],"categories":[],"categories_nodes":[],"categories_segments":[],"categories_sizes":[],"default_left":[0,0,0,0,0,0,0,0,0,0,0,0,0,0,0],"id":66,"left_children":[1,3,5,7,9,11,13,-1,-1,-1,-1,-1,-1,-1,-1],"loss_changes":[8.383416E6,9.149075E5,6.61311E5,1.75785E5,2.0384011E5,5.1372588E5,1.53274E5,0E0,0E0,0E0,0E0,0E0,0E0,0E0,0E0],"parents":[2147483647,0,0,1,1,2,2,3,3,4,4,5,5,6,6],"right_children":[2,4,6,8,10,12,14,-1,-1,-1,-1,-1,-1,-1,-1],"split_conditions":[8.4E0,1.03E1,3.36E1,1.2E1,1.61E1,1.46E1,1.47E1,-2.4959028E0,-1.6304332E0,-4.190179E-1,2.7141082E0,5.8608896E-1,2.6116383E0,4.8178825E0,3.157354E0],"split_indices":[4,2,3,3,1,2,2,0,0,0,0,0,0,0,0],"split_type":[0,0,0,0,0,0,0,0,0,0,0,0,0,0,0],"sum_hessian":[1.593E3,9.78E2,6.15E2,6.9E2,2.88E2,3.67E2,2.48E2,3.3E2,3.6E2,2.73E2,1.5E1,1.58E2,2.09E2,5.5E1,1.93E2],"tree_param":{"num_deleted":"0","num_feature":"7","num_nodes":"15","size_leaf_vector":"1"}},{"base_weights":[1.1646172E0,-5.606629E1,9.282225E1,-7.609937E1,-7.0471606E0,6.3501392E1,1.3599232E2,-2.7880404E0,-1.8018799E0,-3.4691706E-1,2.7020671E0,1.2546357E0,2.8508396E0,3.054734E0,4.6662016E0],"categories":[],"categories_nodes":[],"categories_segments":[],"categories_sizes":[],"default_left":[0,0,0,0,0,0,0,0,0,0,0,0,0,0,0],"id":67,"left_children":[1,3,5,7,9,11,13,-1,-1,-1,-1,-1,-1,-1,-1],"loss_changes":[8.28028E6,9.538485E5,7.6147E5,1.65E5,1.8126003E5,2.5566738E5,1.90212E5,0E0,0E0,0E0,0E0,0E0,0E0,0E0,0E0],"parents":[2147483647,0,0,1,1,2,2,3,3,4,4,5,5,6,6],"right_children":[2,4,6,8,10,12,14,-1,-1,-1,-1,-1,-1,-1,-1],"split_conditions":[8.5E0,1.03E1,1.67E1,7E0,1.61E1,1.11E1,1.15E2,-2.7880404E0,-1.8018799E0,-3.4691706E-1,2.7020671E0,1.2546357E0,2.8508396E0,3.054734E0,4.6662016E0],"split_indices":[4,2,1,0,1,4,0,0,0,0,0,0,0,0,0],"split_type":[0,0,0,0,0,0,0,0,0,0,0,0,0,0,0],"sum_hessian":[1.577E3,9.71E2,6.06E2,6.89E2,2.82E2,3.62E2,2.44E2,1.63E2,5.26E2,2.68E2,1.4E1,2.62E2,1E2,1.57E2,8.7E1],"tree_param":{"num_deleted":"0","num_feature":"7","num_nodes":"15","size_leaf_vector":"1"}},{"base_weights":[-1.8363024E0,-5.5304626E1,8.367475E1,-7.3366325E1,-1.2016169E1,6.600227E1,1.356335E2,-2.7132084E0,-1.7238122E0,-1.7096779E0,-6.854033E-2,7.1656356E0,1.6575701E0,3.9985757E0,1.4232674E0],"categories":[],"categories_nodes":[],"categories_segments":[],"categories_sizes":[],"default_left":[0,0,0,0,0,0,0,0,0,0,0,0,0,0,0],"id":68,"left_children":[1,3,5,7,9,11,13,-1,-1,-1,-1,-1,-1,-1,-1],"loss_changes":[7.1394635E6,7.50499E5,5.448485E5,1.6548525E5,1.3893156E5,3.5983262E5,1.65168E5,0E0,0E0,0E0,0E0,0E0,0E0,0E0,0E0],"parents":[2147483647,0,0,1,1,2,2,3,3,4,4,5,5,6,6],"right_children":[2,4,6,8,10,12,14,-1,-1,-1,-1,-1,-1,-1,-1],"split_conditions":[8.5E0,1.03E1,3.55E1,7E0,7.3E0,8.8E0,2.07E1,-2.7132084E0,-1.7238122E0,-1.7096779E0,-6.854033E-2,7.1656356E0,1.6575701E0,3.9985757E0,1.4232674E0],"split_indices":[4,2,3,0,1,1,1,0,0,0,0,0,0,0,0],"split_type":[0,0,0,0,0,0,0,0,0,0,0,0,0,0,0],"sum_hessian":[1.56E3,9.6E2,6E2,6.77E2,2.83E2,4.49E2,1.51E2,1.63E2,5.14E2,4.3E1,2.4E2,8E0,4.41E2,1.29E2,2.2E1],"tree_param":{"num_deleted":"0","num_feature":"7","num_nodes":"15","size_leaf_vector":"1"}},{"base_weights":[2.6486547E0,-4.5628174E1,9.4805786E1,-6.785949E1,6.0237E0,6.57271E1,1.18250404E2,-2.1674979E0,-1.1886799E0,-4.550381E-3,4.4376316E0,1.1178617E0,2.72404E0,6.4780517E0,2.976538E0],"categories":[],"categories_nodes":[],"categories_segments":[],"categories_sizes":[],"default_left":[0,0,0,0,0,0,0,0,0,0,0,0,0,0,0],"id":69,"left_children":[1,3,5,7,9,11,13,-1,-1,-1,-1,-1,-1,-1,-1],"loss_changes":[7.076176E6,1.1988508E6,3.668485E5,2.212605E5,3.1134E5,2.0891775E5,2.44736E5,0E0,0E0,0E0,0E0,0E0,0E0,0E0,0E0],"parents":[2147483647,0,0,1,1,2,2,3,3,4,4,5,5,6,6],"right_children":[2,4,6,8,10,12,14,-1,-1,-1,-1,-1,-1,-1,-1],"split_conditions":[2.7E1,1.1E1,3.26E1,2.1E1,7.6E0,1.2E1,9.9E0,-2.1674979E0,-1.1886799E0,-4.550381E-3,4.4376316E0,1.1178617E0,2.72404E0,6.4780517E0,2.976538E0],"split_indices":[3,2,3,0,6,5,4,0,0,0,0,0,0,0,0],"split_type":[0,0,0,0,0,0,0,0,0,0,0,0,0,0,0],"sum_hessian":[1.589E3,1.043E3,5.46E2,7.29E2,3.14E2,2.45E2,3.01E2,4.67E2,2.62E2,3.03E2,1.1E1,1.48E2,9.7E1,1.5E1,2.86E2],"tree_param":{"num_deleted":"0","num_feature":"7","num_nodes":"15","size_leaf_vector":"1"}},{"base_weights":[-2.5338876E-1,-4.996071E1,8.651332E1,-6.7485054E1,-9.0555793E-1,5.9618618E1,1.2467097E2,-2.1805818E0,-1.2871099E0,-2.0399499E-1,2.221633E0,5.620466E0,1.4742922E0,3.7079911E0,2.139457E0],"categories":[],"categories_nodes":[],"categories_segments":[],"categories_sizes":[],"default_left":[0,0,0,0,0,0,0,0,0,0,0,0,0,0,0],"id":70,"left_children":[1,3,5,7,9,11,13,-1,-1,-1,-1,-1,-1,-1,-1],"loss_changes":[6.829581E6,8.6540875E5,5.862485E5,1.97854E5,1.500475E5,2.24416E5,1.3841625E5,0E0,0E0,0E0,0E0,0E0,0E0,0E0,0E0],"parents":[2147483647,0,0,1,1,2,2,3,3,4,4,5,5,6,6],"right_children":[2,4,6,8,10,12,14,-1,-1,-1,-1,-1,-1,-1,-1],"split_conditions":[9E0,1.81E1,1.67E1,1.35E1,2.83E1,9.1E0,2.01E1,-2.1805818E0,-1.2871099E0,-2.0399499E-1,2.221633E0,5.620466E0,1.4742922E0,3.7079911E0,2.139457E0],"split_indices":[4,3,1,3,3,1,1,0,0,0,0,0,0,0,0],"split_type":[0,0,0,0,0,0,0,0,0,0,0,0,0,0,0],"sum_hessian":[1.582E3,1.006E3,5.76E2,7.41E2,2.65E2,3.39E2,2.37E2,4.3E2,3.11E2,2.46E2,1.9E1,9E0,3.3E2,1.8E2,5.7E1],"tree_param":{"num_deleted":"0","num_feature":"7","num_nodes":"15","size_leaf_vector":"1"}},{"base_weights":[8.584827E-2,-4.526041E1,8.630394E1,-6.6167854E1,-3.02666E0,7.4362E1,1.3366206E2,-2.120548E0,-1.2609485E0,-2.432867E-1,4.9588757E0,1.6830463E0,2.8559575E0,4.4403095E0,1.871947E0],"categories":[],"categories_nodes":[],"categories_segments":[],"categories_sizes":[],"default_left":[0,0,0,0,0,0,0,0,0,0,0,0,0,0,0],"id":71,"left_children":[1,3,5,7,9,11,13,-1,-1,-1,-1,-1,-1,-1,-1],"loss_changes":[6.1792695E6,9.14408E5,3.0055025E5,1.6921975E5,3.931339E5,1.5727925E5,2.1410062E5,0E0,0E0,0E0,0E0,0E0,0E0,0E0,0E0],"parents":[2147483647,0,0,1,1,2,2,3,3,4,4,5,5,6,6],"right_children":[2,4,6,8,10,12,14,-1,-1,-1,-1,-1,-1,-1,-1],"split_conditions":[2.68E1,1.75E1,1.15E2,1.32E1,8E0,3.45E1,8.3E0,-2.120548E0,-1.2609485E0,-2.432867E-1,4.9588757E0,1.6830463E0,2.8559575E0,4.4403095E0,1.871947E0],"split_indices":[3,3,0,3,6,3,6,0,0,0,0,0,0,0,0],"split_type":[0,0,0,0,0,0,0,0,0,0,0,0,0,0,0],"sum_hessian":[1.579E3,1.035E3,5.44E2,6.92E2,3.43E2,4.36E2,1.08E2,4.1E2,2.82E2,3.33E2,1E1,3.23E2,1.13E2,7.1E1,3.7E1],"tree_param":{"num_deleted":"0","num_feature":"7","num_nodes":"15","size_leaf_vector":"1"}},{"base_weights":[2.3475342E0,-4.7478413E1,8.241092E1,-7.517567E1,-2.1325642E1,6.0412907E1,1.300677E2,-2.4672742E0,-1.7688633E0,-1.1040642E0,-1.1586148E-1,9.988195E-1,2.367006E0,2.8050122E0,4.0546393E0],"categories":[],"categories_nodes":[],"categories_segments":[],"categories_sizes":[],"default_left":[0,0,0,0,0,0,0,0,0,0,0,0,0,0,0],"id":72,"left_children":[1,3,5,7,9,11,13,-1,-1,-1,-1,-1,-1,-1,-1],"loss_changes":[6.2371515E6,6.968795E5,6.227945E5,6.77475E4,1.6790919E5,2.6374138E5,8.99845E4,0E0,0E0,0E0,0E0,0E0,0E0,0E0,0E0],"parents":[2147483647,0,0,1,1,2,2,3,3,4,4,5,5,6,6],"right_children":[2,4,6,8,10,12,14,-1,-1,-1,-1,-1,-1,-1,-1],"split_conditions":[2.55E1,2.1E1,1.01E2,7E0,8.2E0,1.09E1,1.15E2,-2.4672742E0,-1.7688633E0,-1.1040642E0,-1.1586148E-1,9.988195E-1,2.367006E0,2.8050122E0,4.0546393E0],"split_indices":[3,0,0,0,1,4,0,0,0,0,0,0,0,0,0],"split_type":[0,0,0,0,0,0,0,0,0,0,0,0,0,0,0],"sum_hessian":[1.562E3,9.63E2,5.99E2,4.67E2,4.96E2,4.11E2,1.88E2,1.61E2,3.06E2,2.28E2,2.68E2,2.26E2,1.85E2,8.8E1,1E2],"tree_param":{"num_deleted":"0","num_feature":"7","num_nodes":"15","size_leaf_vector":"1"}},{"base_weights":[4.4490114E-1,-4.4134804E1,8.634274E1,-6.3490955E1,-3.4282422E0,6.742702E1,1.2513692E2,-2.0955567E0,-1.3374921E0,-2.6567426E-1,3.633364E0,1.9415715E0,-3.1901937E0,3.9579885E0,2.2930763E0],"categories":[],"categories_nodes":[],"categories_segments":[],"categories_sizes":[],"default_left":[0,0,0,0,0,0,0,0,0,0,0,0,0,0,0],"id":73,"left_children":[1,3,5,7,9,11,13,-1,-1,-1,-1,-1,-1,-1,-1],"loss_changes":[5.937358E6,8.041E5,3.823455E5,1.353455E5,2.9878362E5,3.4503375E5,1.450645E5,0E0,0E0,0E0,0E0,0E0,0E0,0E0,0E0],"parents":[2147483647,0,0,1,1,2,2,3,3,4,4,5,5,6,6],"right_children":[2,4,6,8,10,12,14,-1,-1,-1,-1,-1,-1,-1,-1],"split_conditions":[2.7E1,8.2E0,1.01E2,6.4E0,1.65E1,2.12E1,8.3E0,-2.0955567E0,-1.3374921E0,-2.6567426E-1,3.633364E0,1.9415715E0,-3.1901937E0,3.9579885E0,2.2930763E0],"split_indices":[3,1,0,2,1,1,6,0,0,0,0,0,0,0,0],"split_type":[0,0,0,0,0,0,0,0,0,0,0,0,0,0,0],"sum_hessian":[1.549E3,1.02E3,5.29E2,6.91E2,3.29E2,3.57E2,1.72E2,3.29E2,3.62E2,3.15E2,1.4E1,3.48E2,9E0,1.08E2,6.4E1],"tree_param":{"num_deleted":"0","num_feature":"7","num_nodes":"15","size_leaf_vector":"1"}},{"base_weights":[-2.9065912E0,-5.280296E1,5.7397163E1,-6.926721E1,-2.7049713E1,2.4101482E1,8.9196205E1,-2.3424861E0,-1.6485097E0,-1.231981E0,-4.1505095E-1,1.04273014E-1,1.5767355E0,2.138156E0,3.8304498E0],"categories":[],"categories_nodes":[],"categories_segments":[],"categories_sizes":[],"default_left":[0,0,0,0,0,0,0,0,0,0,0,0,0,0,0],"id":74,"left_children":[1,3,5,7,9,11,13,-1,-1,-1,-1,-1,-1,-1,-1],"loss_changes":[4.7165535E6,3.6226475E5,7.498265E5,6.92855E4,7.29608E4,2.441915E5,1.7406375E5,0E0,0E0,0E0,0E0,0E0,0E0,0E0,0E0],"parents":[2147483647,0,0,1,1,2,2,3,3,4,4,5,5,6,6],"right_children":[2,4,6,8,10,12,14,-1,-1,-1,-1,-1,-1,-1,-1],"split_conditions":[1.23E1,5.6E0,1.04E1,7E0,2.8E1,2.85E1,3.9E1,-2.3424861E0,-1.6485097E0,-1.231981E0,-4.1505095E-1,1.04273014E-1,1.5767355E0,2.138156E0,3.8304498E0],"split_indices":[2,5,4,0,0,3,3,0,0,0,0,0,0,0,0],"split_type":[0,0,0,0,0,0,0,0,0,0,0,0,0,0,0],"sum_hessian":[1.566E3,8.57E2,7.09E2,5.22E2,3.35E2,3.47E2,3.62E2,1.53E2,3.69E2,1.26E2,2.09E2,2.2E2,1.27E2,3.1E2,5.2E1],"tree_param":{"num_deleted":"0","num_feature":"7","num_nodes":"15","size_leaf_vector":"1"}},{"base_weights":[7.1334666E-1,-5.1254723E1,6.438882E1,-6.8971565E1,-2.9119984E1,3.480709E1,9.842485E1,-2.2808928E0,-1.6246336E0,-1.2426351E0,-4.7815964E-1,6.697414E-1,2.0288258E0,2.3687518E0,4.0257535E0],"categories":[],"categories_nodes":[],"categories_segments":[],"categories_sizes":[],"default_left":[0,0,0,0,0,0,0,0,0,0,0,0,0,0,0],"id":75,"left_children":[1,3,5,7,9,11,13,-1,-1,-1,-1,-1,-1,-1,-1],"loss_changes":[5.1969535E6,3.3758825E5,7.0797775E5,6.0631E4,7.445944E4,1.5053103E5,1.595925E5,0E0,0E0,0E0,0E0,0E0,0E0,0E0,0E0],"parents":[2147483647,0,0,1,1,2,2,3,3,4,4,5,5,6,6],"right_children":[2,4,6,8,10,12,14,-1,-1,-1,-1,-1,-1,-1,-1],"split_conditions":[2.2E1,2.1E1,8E1,7E0,7.3E0,1.2E1,3.9E1,-2.2808928E0,-1.6246336E0,-1.2426351E0,-4.7815964E-1,6.697414E-1,2.0288258E0,2.3687518E0,4.0257535E0],"split_indices":[3,0,0,0,1,5,3,0,0,0,0,0,0,0,0],"split_type":[0,0,0,0,0,0,0,0,0,0,0,0,0,0,0],"sum_hessian":[1.569E3,8.64E2,7.05E2,4.79E2,3.85E2,3.78E2,3.27E2,1.6E2,3.19E2,1.51E2,2.34E2,3.06E2,7.2E1,2.76E2,5.1E1],"tree_param":{"num_deleted":"0","num_feature":"7","num_nodes":"15","size_leaf_vector":"1"}},{"base_weights":[1.6520553E0,-3.949698E1,7.5688545E1,-6.444024E1,-1.3321136E1,6.0936375E1,1.158402E2,-2.2188041E0,-1.5074292E0,-4.4713277E-1,4.1250725E0,1.0102733E0,1.9356624E0,4.20281E0,2.7094738E0],"categories":[],"categories_nodes":[],"categories_segments":[],"categories_sizes":[],"default_left":[0,0,0,0,0,0,0,0,0,0,0,0,0,0,0],"id":76,"left_children":[1,3,5,7,9,11,13,-1,-1,-1,-1,-1,-1,-1,-1],"loss_changes":[4.748008E6,6.533956E5,3.244235E5,7.3416E4,2.7854406E5,1.055415E5,7.763675E4,0E0,0E0,0E0,0E0,0E0,0E0,0E0,0E0],"parents":[2147483647,0,0,1,1,2,2,3,3,4,4,5,5,6,6],"right_children":[2,4,6,8,10,12,14,-1,-1,-1,-1,-1,-1,-1,-1],"split_conditions":[2.65E1,1.5E1,3.58E1,7E0,8E0,1.48E1,1.11E1,-2.2188041E0,-1.5074292E0,-4.4713277E-1,4.1250725E0,1.0102733E0,1.9356624E0,4.20281E0,2.7094738E0],"split_indices":[3,3,3,0,6,2,5,0,0,0,0,0,0,0,0],"split_type":[0,0,0,0,0,0,0,0,0,0,0,0,0,0,0],"sum_hessian":[1.557E3,1.001E3,5.56E2,5.12E2,4.89E2,4.08E2,1.48E2,1.55E2,3.57E2,4.8E2,9E0,1.35E2,2.73E2,3.7E1,1.11E2],"tree_param":{"num_deleted":"0","num_feature":"7","num_nodes":"15","size_leaf_vector":"1"}},{"base_weights":[2.0807172E-1,-4.7838436E1,6.2354164E1,-6.401357E1,-2.3536745E1,3.3934364E1,9.172242E1,-2.1595006E0,-1.5070667E0,-7.824906E-1,8.0508584E-1,3.4668999E0,7.553004E-1,2.6455019E0,7.390682E-1],"categories":[],"categories_nodes":[],"categories_segments":[],"categories_sizes":[],"default_left":[0,0,0,0,0,0,0,0,0,0,0,0,0,0,0],"id":77,"left_children":[1,3,5,7,9,11,13,-1,-1,-1,-1,-1,-1,-1,-1],"loss_changes":[4.737162E6,3.505615E5,5.749965E5,6.56045E4,1.0991925E5,1.9032944E5,1.5178225E5,0E0,0E0,0E0,0E0,0E0,0E0,0E0,0E0],"parents":[2147483647,0,0,1,1,2,2,3,3,4,4,5,5,6,6],"right_children":[2,4,6,8,10,12,14,-1,-1,-1,-1,-1,-1,-1,-1],"split_conditions":[7.6E0,5.6E0,1.09E1,7E0,1.33E1,8.8E0,2.11E1,-2.1595006E0,-1.5070667E0,-7.824906E-1,8.0508584E-1,3.4668999E0,7.553004E-1,2.6455019E0,7.390682E-1],"split_indices":[4,5,4,0,2,1,1,0,0,0,0,0,0,0,0],"split_type":[0,0,0,0,0,0,0,0,0,0,0,0,0,0,0],"sum_hessian":[1.585E3,8.94E2,6.91E2,5.36E2,3.58E2,3.52E2,3.39E2,1.68E2,3.68E2,3.24E2,3.4E1,1.9E1,3.33E2,3.05E2,3.4E1],"tree_param":{"num_deleted":"0","num_feature":"7","num_nodes":"15","size_leaf_vector":"1"}},{"base_weights":[-1.3609259E0,-4.2436596E1,6.273843E1,-5.4753147E1,-3.453127E0,4.2582108E1,9.2184166E1,-1.7793978E0,-1.0346742E0,-1.9719926E-1,1.708755E0,5.342353E0,1.0351282E0,2.8251846E0,1.3547958E0],"categories":[],"categories_nodes":[],"categories_segments":[],"categories_sizes":[],"default_left":[0,0,0,0,0,0,0,0,0,0,0,0,0,0,0],"id":78,"left_children":[1,3,5,7,9,11,13,-1,-1,-1,-1,-1,-1,-1,-1],"loss_changes":[4.1376828E6,4.5970562E5,3.6128975E5,1.3517375E5,6.103574E4,2.1966994E5,1.3366425E5,0E0,0E0,0E0,0E0,0E0,0E0,0E0,0E0],"parents":[2147483647,0,0,1,1,2,2,3,3,4,4,5,5,6,6],"right_children":[2,4,6,8,10,12,14,-1,-1,-1,-1,-1,-1,-1,-1],"split_conditions":[8.5E0,7.1E0,1.67E1,1.34E1,2.83E1,8.8E0,2.01E1,-1.7793978E0,-1.0346742E0,-1.9719926E-1,1.708755E0,5.342353E0,1.0351282E0,2.8251846E0,1.3547958E0],"split_indices":[4,5,1,3,3,1,1,0,0,0,0,0,0,0,0],"split_type":[0,0,0,0,0,0,0,0,0,0,0,0,0,0,0],"sum_hessian":[1.57E3,9.57E2,6.13E2,7.27E2,2.3E2,3.65E2,2.48E2,4.2E2,3.07E2,2.18E2,1.2E1,8E0,3.57E2,1.87E2,6.1E1],"tree_param":{"num_deleted":"0","num_feature":"7","num_nodes":"15","size_leaf_vector":"1"}},{"base_weights":[-1.7089328E0,-3.7980263E1,6.692374E1,-5.363825E1,-3.815453E0,4.6162426E1,9.481227E1,-1.8321635E0,-1.1092095E0,-1.4390763E0,9.480053E-2,1.6027216E0,3.892588E-1,3.0494678E0,1.0968959E0],"categories":[],"categories_nodes":[],"categories_segments":[],"categories_sizes":[],"default_left":[0,0,0,0,0,0,0,0,0,0,0,0,0,0,0],"id":79,"left_children":[1,3,5,7,9,11,13,-1,-1,-1,-1,-1,-1,-1,-1],"loss_changes":[3.9221042E6,5.512401E5,3.1208825E5,1.2545225E5,1.1939625E5,1.3512119E5,2.3429612E5,0E0,0E0,0E0,0E0,0E0,0E0,0E0,0E0],"parents":[2147483647,0,0,1,1,2,2,3,3,4,4,5,5,6,6],"right_children":[2,4,6,8,10,12,14,-1,-1,-1,-1,-1,-1,-1,-1],"split_conditions":[2.65E1,1.03E1,1.67E1,4.3E0,7.3E0,8E0,2.01E1,-1.8321635E0,-1.1092095E0,-1.4390763E0,9.480053E-2,1.6027216E0,3.892588E-1,3.0494678E0,1.0968959E0],"split_indices":[3,2,1,4,1,6,1,0,0,0,0,0,0,0,0],"split_type":[0,0,0,0,0,0,0,0,0,0,0,0,0,0,0],"sum_hessian":[1.574E3,1.03E3,5.44E2,7.06E2,3.24E2,3.13E2,2.31E2,3.18E2,3.88E2,4.1E1,2.83E2,2.18E2,9.5E1,1.7E2,6.1E1],"tree_param":{"num_deleted":"0","num_feature":"7","num_nodes":"15","size_leaf_vector":"1"}},{"base_weights":[-2.3616512E0,-3.91387E1,6.2619797E1,-5.6759144E1,-1.4049353E1,4.379279E1,1.0401508E2,-2.010493E0,-1.3335806E0,-9.568084E-1,-5.2129284E-2,7.466806E-1,1.9931917E0,2.778346E-1,2.920451E0],"categories":[],"categories_nodes":[],"categories_segments":[],"categories_sizes":[],"default_left":[0,0,0,0,0,0,0,0,0,0,0,0,0,0,0],"id":80,"left_children":[1,3,5,7,9,11,13,-1,-1,-1,-1,-1,-1,-1,-1],"loss_changes":[3.7078782E6,4.3738475E5,4.33562E5,7.133775E4,1.07448414E5,1.8693244E5,8.1538875E4,0E0,0E0,0E0,0E0,0E0,0E0,0E0,0E0],"parents":[2147483647,0,0,1,1,2,2,3,3,4,4,5,5,6,6],"right_children":[2,4,6,8,10,12,14,-1,-1,-1,-1,-1,-1,-1,-1],"split_conditions":[9E0,7.3E0,1.01E2,7E0,1.03E1,3.26E1,1.56E1,-2.010493E0,-1.3335806E0,-9.568084E-1,-5.2129284E-2,7.466806E-1,1.9931917E0,2.778346E-1,2.920451E0],"split_indices":[4,1,0,0,2,3,1,0,0,0,0,0,0,0,0],"split_type":[0,0,0,0,0,0,0,0,0,0,0,0,0,0,0],"sum_hessian":[1.55E3,9.9E2,5.6E2,5.81E2,4.09E2,3.86E2,1.74E2,1.58E2,4.23E2,1.46E2,2.63E2,2.55E2,1.31E2,9E0,1.65E2],"tree_param":{"num_deleted":"0","num_feature":"7","num_nodes":"15","size_leaf_vector":"1"}},{"base_weights":[-5.534602E-1,-3.6051624E1,6.4369125E1,-5.018208E1,9.24414E-1,4.19167E1,8.342683E1,-1.7286745E0,-1.0457354E0,-8.427026E-2,3.4199514E0,3.8318065E-1,1.635573E0,6.292574E0,2.0179956E0],"categories":[],"categories_nodes":[],"categories_segments":[],"categories_sizes":[],"default_left":[0,0,0,0,0,0,0,0,0,0,0,0,0,0,0],"id":81,"left_children":[1,3,5,7,9,11,13,-1,-1,-1,-1,-1,-1,-1,-1],"loss_changes":[3.610235E6,5.291955E5,2.342875E5,1.15296E5,1.452298E5,1.3459225E5,3.52117E5,0E0,0E0,0E0,0E0,0E0,0E0,0E0,0E0],"parents":[2147483647,0,0,1,1,2,2,3,3,4,4,5,5,6,6],"right_children":[2,4,6,8,10,12,14,-1,-1,-1,-1,-1,-1,-1,-1],"split_conditions":[2.65E1,1.1E1,3.26E1,4.3E0,8E0,1.48E1,9.9E0,-1.7286745E0,-1.0457354E0,-8.427026E-2,3.4199514E0,3.8318065E-1,1.635573E0,6.292574E0,2.0179956E0],"split_indices":[3,2,3,4,6,2,4,0,0,0,0,0,0,0,0],"split_type":[0,0,0,0,0,0,0,0,0,0,0,0,0,0,0],"sum_hessian":[1.565E3,1.012E3,5.53E2,7.32E2,2.8E2,2.55E2,2.98E2,3.18E2,4.14E2,2.72E2,8E0,1.05E2,1.5E2,1.4E1,2.84E2],"tree_param":{"num_deleted":"0","num_feature":"7","num_nodes":"15","size_leaf_vector":"1"}},{"base_weights":[-1.5464157E-1,-4.2905098E1,5.081976E1,-5.8452496E1,-2.6206034E1,2.7243254E1,9.3729706E1,-1.9044892E0,-1.3868415E0,-9.66695E-1,-2.8738186E-1,2.1625832E-1,1.2192924E0,2.9378877E0,1.1455494E0],"categories":[],"categories_nodes":[],"categories_segments":[],"categories_sizes":[],"default_left":[0,0,0,0,0,0,0,0,0,0,0,0,0,0,0],"id":82,"left_children":[1,3,5,7,9,11,13,-1,-1,-1,-1,-1,-1,-1,-1],"loss_changes":[3.476899E6,2.241225E5,7.342979E5,3.5084375E4,6.3948344E4,1.647145E5,2.0621375E5,0E0,0E0,0E0,0E0,0E0,0E0,0E0,0E0],"parents":[2147483647,0,0,1,1,2,2,3,3,4,4,5,5,6,6],"right_children":[2,4,6,8,10,12,14,-1,-1,-1,-1,-1,-1,-1,-1],"split_conditions":[1.23E1,1.37E1,1.67E1,7E0,8.6E0,2.85E1,2.01E1,-1.9044892E0,-1.3868415E0,-9.66695E-1,-2.8738186E-1,2.1625832E-1,1.2192924E0,2.9378877E0,1.1455494E0],"split_indices":[2,3,1,0,1,3,1,0,0,0,0,0,0,0,0],"split_type":[0,0,0,0,0,0,0,0,0,0,0,0,0,0,0],"sum_hessian":[1.594E3,8.67E2,7.27E2,4.48E2,4.19E2,4.7E2,2.57E2,1.52E2,2.96E2,2.55E2,1.64E2,2.3E2,2.4E2,1.95E2,6.2E1],"tree_param":{"num_deleted":"0","num_feature":"7","num_nodes":"15","size_leaf_vector":"1"}},{"base_weights":[-1.4984424E-1,-4.266266E1,5.141252E1,-5.5074654E1,-2.2627188E1,1.8410042E1,7.475316E1,-1.8562946E0,-1.2948155E0,-8.7152267E-1,-2.3525406E-1,3.370224E-1,3.1034043E0,1.7828853E0,3.2534502E0],"categories":[],"categories_nodes":[],"categories_segments":[],"categories_sizes":[],"default_left":[0,0,0,0,0,0,0,0,0,0,0,0,0,0,0],"id":83,"left_children":[1,3,5,7,9,11,13,-1,-1,-1,-1,-1,-1,-1,-1],"loss_changes":[3.4864925E6,2.1583488E5,5.526019E5,4.8954625E4,4.572689E4,1.6851738E5,1.5469325E5,0E0,0E0,0E0,0E0,0E0,0E0,0E0,0E0],"parents":[2147483647,0,0,1,1,2,2,3,3,4,4,5,5,6,6],"right_children":[2,4,6,8,10,12,14,-1,-1,-1,-1,-1,-1,-1,-1],"split_conditions":[1.23E1,5.6E0,3E1,7E0,7.1E0,1.27E1,3.9E1,-1.8562946E0,-1.2948155E0,-8.7152267E-1,-2.3525406E-1,3.370224E-1,3.1034043E0,1.7828853E0,3.2534502E0],"split_indices":[2,5,3,0,5,5,3,0,0,0,0,0,0,0,0],"split_type":[0,0,0,0,0,0,0,0,0,0,0,0,0,0,0],"sum_hessian":[1.589E3,8.71E2,7.18E2,5.37E2,3.34E2,2.98E2,4.2E2,1.7E2,3.67E2,1.94E2,1.4E2,2.82E2,1.6E1,3.59E2,6.1E1],"tree_param":{"num_deleted":"0","num_feature":"7","num_nodes":"15","size_leaf_vector":"1"}},{"base_weights":[-7.9236287E-1,-4.0963596E1,4.9093376E1,-5.6131306E1,-2.5511148E1,2.2933247E1,7.0125404E1,-1.7481502E0,-1.2947189E0,-8.883991E-1,-2.540442E-1,4.25987E-1,2.9815714E0,2.262809E0,9.105348E-1],"categories":[],"categories_nodes":[],"categories_segments":[],"categories_sizes":[],"default_left":[0,0,0,0,0,0,0,0,0,0,0,0,0,0,0],"id":84,"left_children":[1,3,5,7,9,11,13,-1,-1,-1,-1,-1,-1,-1,-1],"loss_changes":[3.121208E6,2.0111675E5,3.8102538E5,2.8556875E4,5.2400562E4,1.9167019E5,1.97536E5,0E0,0E0,0E0,0E0,0E0,0E0,0E0,0E0],"parents":[2147483647,0,0,1,1,2,2,3,3,4,4,5,5,6,6],"right_children":[2,4,6,8,10,12,14,-1,-1,-1,-1,-1,-1,-1,-1],"split_conditions":[1.23E1,1.35E1,3.05E1,9.8E0,7.1E0,1.27E1,8.3E0,-1.7481502E0,-1.2947189E0,-8.883991E-1,-2.540442E-1,4.25987E-1,2.9815714E0,2.262809E0,9.105348E-1],"split_indices":[2,3,3,3,5,5,6,0,0,0,0,0,0,0,0],"split_type":[0,0,0,0,0,0,0,0,0,0,0,0,0,0,0],"sum_hessian":[1.556E3,8.62E2,6.94E2,4.34E2,4.28E2,3.1E2,3.84E2,1.97E2,2.37E2,2.89E2,1.39E2,2.88E2,2.2E1,2.74E2,1.1E2],"tree_param":{"num_deleted":"0","num_feature":"7","num_nodes":"15","size_leaf_vector":"1"}},{"base_weights":[-1.9493045E0,-3.908055E1,4.480789E1,-5.2758118E1,-1.9677807E1,1.8871782E1,6.6489494E1,-1.6942292E0,-1.2313154E0,-6.245564E-1,4.9251273E-1,2.580047E-1,1.7834076E0,1.6304195E0,2.6711812E0],"categories":[],"categories_nodes":[],"categories_segments":[],"categories_sizes":[],"default_left":[0,0,0,0,0,0,0,0,0,0,0,0,0,0,0],"id":85,"left_children":[1,3,5,7,9,11,13,-1,-1,-1,-1,-1,-1,-1,-1],"loss_changes":[2.6936675E6,2.28695E5,3.85226E5,3.3881875E4,5.0084375E4,1.3781878E5,6.5100875E4,0E0,0E0,0E0,0E0,0E0,0E0,0E0,0E0],"parents":[2147483647,0,0,1,1,2,2,3,3,4,4,5,5,6,6],"right_children":[2,4,6,8,10,12,14,-1,-1,-1,-1,-1,-1,-1,-1],"split_conditions":[7.6E0,5.6E0,1.04E1,1E1,1.33E1,1.59E1,3.9E1,-1.6942292E0,-1.2313154E0,-6.245564E-1,4.9251273E-1,2.580047E-1,1.7834076E0,1.6304195E0,2.6711812E0],"split_indices":[4,5,4,3,2,2,3,0,0,0,0,0,0,0,0],"split_type":[0,0,0,0,0,0,0,0,0,0,0,0,0,0,0],"sum_hessian":[1.55E3,8.64E2,6.86E2,5.06E2,3.58E2,3.13E2,3.73E2,1.96E2,3.1E2,3.27E2,3.1E1,2.63E2,5E1,3.21E2,5.2E1],"tree_param":{"num_deleted":"0","num_feature":"7","num_nodes":"15","size_leaf_vector":"1"}},{"base_weights":[-1.8150169E0,-3.8411945E1,4.116771E1,-5.0149635E1,-1.9637611E1,1.3148601E1,6.152727E1,-1.7150011E0,-1.1800114E0,-8.8786966E-1,-3.1043488E-1,2.0365271E-1,2.9391696E0,4.565199E0,1.5618339E0],"categories":[],"categories_nodes":[],"categories_segments":[],"categories_sizes":[],"default_left":[0,0,0,0,0,0,0,0,0,0,0,0,0,0,0],"id":86,"left_children":[1,3,5,7,9,11,13,-1,-1,-1,-1,-1,-1,-1,-1],"loss_changes":[2.5097985E6,1.8914775E5,4.179525E5,4.26435E4,3.588843E4,1.6524539E5,1.40881E5,0E0,0E0,0E0,0E0,0E0,0E0,0E0,0E0],"parents":[2147483647,0,0,1,1,2,2,3,3,4,4,5,5,6,6],"right_children":[2,4,6,8,10,12,14,-1,-1,-1,-1,-1,-1,-1,-1],"split_conditions":[2.11E1,1.46E1,3E1,7E0,2.8E1,1.27E1,1.14E1,-1.7150011E0,-1.1800114E0,-8.8786966E-1,-3.1043488E-1,2.0365271E-1,2.9391696E0,4.565199E0,1.5618339E0],"split_indices":[3,3,3,0,0,5,1,0,0,0,0,0,0,0,0],"split_type":[0,0,0,0,0,0,0,0,0,0,0,0,0,0,0],"sum_hessian":[1.594E3,8.61E2,7.33E2,5.29E2,3.32E2,3.09E2,4.24E2,1.59E2,3.7E2,1.23E2,2.09E2,2.93E2,1.6E1,1.1E1,4.13E2],"tree_param":{"num_deleted":"0","num_feature":"7","num_nodes":"15","size_leaf_vector":"1"}},{"base_weights":[-9.9044E-2,-3.9145836E1,4.6019787E1,-4.90451E1,-2.1744057E1,2.9906704E1,8.036475E1,-1.6094306E0,-1.1122217E0,-9.519569E-1,-3.6524943E-1,4.8051628E-1,1.7877809E0,2.5488818E0,1.0482951E0],"categories":[],"categories_nodes":[],"categories_segments":[],"categories_sizes":[],"default_left":[0,0,0,0,0,0,0,0,0,0,0,0,0,0,0],"id":87,"left_children":[1,3,5,7,9,11,13,-1,-1,-1,-1,-1,-1,-1,-1],"loss_changes":[2.8191562E6,1.4522188E5,3.9537562E5,4.2924E4,3.416808E4,2.1500119E5,1.3683475E5,0E0,0E0,0E0,0E0,0E0,0E0,0E0,0E0],"parents":[2147483647,0,0,1,1,2,2,3,3,4,4,5,5,6,6],"right_children":[2,4,6,8,10,12,14,-1,-1,-1,-1,-1,-1,-1,-1],"split_conditions":[8E0,5.6E0,1.59E1,1.01E1,7.3E0,3.35E1,8.3E0,-1.6094306E0,-1.1122217E0,-9.519569E-1,-3.6524943E-1,4.8051628E-1,1.7877809E0,2.5488818E0,1.0482951E0],"split_indices":[5,5,2,3,1,3,6,0,0,0,0,0,0,0,0],"split_type":[0,0,0,0,0,0,0,0,0,0,0,0,0,0,0],"sum_hessian":[1.564E3,8.47E2,7.17E2,5.39E2,3.08E2,4.89E2,2.28E2,2.16E2,3.23E2,1.13E2,1.95E2,3.7E2,1.19E2,1.67E2,6.1E1],"tree_param":{"num_deleted":"0","num_feature":"7","num_nodes":"15","size_leaf_vector":"1"}},{"base_weights":[-1.1986655E0,-2.9681187E1,5.4123535E1,-4.168646E1,-0E0,4.100087E1,7.908505E1,-1.4495801E0,-8.73126E-1,-1.0081261E-1,2.9944565E0,1.2175013E0,-2.4254375E0,2.2941375E0,-1.5812789E0],"categories":[],"categories_nodes":[],"categories_segments":[],"categories_sizes":[],"default_left":[0,0,0,0,0,0,0,0,0,0,0,0,0,0,0],"id":88,"left_children":[1,3,5,7,9,11,13,-1,-1,-1,-1,-1,-1,-1,-1],"loss_changes":[2.469968E6,3.6871262E5,1.7204312E5,8.1917E4,1.2606213E5,2.0898019E5,1.6990975E5,0E0,0E0,0E0,0E0,0E0,0E0,0E0,0E0],"parents":[2147483647,0,0,1,1,2,2,3,3,4,4,5,5,6,6],"right_children":[2,4,6,8,10,12,14,-1,-1,-1,-1,-1,-1,-1,-1],"split_conditions":[2.7E1,1.81E1,1.01E2,4.3E0,8E0,2.12E1,2.27E1,-1.4495801E0,-8.73126E-1,-1.0081261E-1,2.9944565E0,1.2175013E0,-2.4254375E0,2.2941375E0,-1.5812789E0],"split_indices":[3,3,0,4,6,1,1,0,0,0,0,0,0,0,0],"split_type":[0,0,0,0,0,0,0,0,0,0,0,0,0,0,0],"sum_hessian":[1.566E3,1.034E3,5.32E2,7.36E2,2.98E2,3.5E2,1.82E2,3.09E2,4.27E2,2.89E2,9E0,3.39E2,1.1E1,1.74E2,8E0],"tree_param":{"num_deleted":"0","num_feature":"7","num_nodes":"15","size_leaf_vector":"1"}},{"base_weights":[5.929233E-1,-3.5761475E1,4.7710785E1,-4.6438606E1,-1.6774065E1,2.8017694E1,8.192904E1,-1.5199109E0,-1.0570886E0,-1.0392419E0,-2.3091608E-1,2.9882354E-1,1.2885213E0,2.6167908E0,8.4788734E-1],"categories":[],"categories_nodes":[],"categories_segments":[],"categories_sizes":[],"default_left":[0,0,0,0,0,0,0,0,0,0,0,0,0,0,0],"id":89,